/*
 * This file is auto-generated by train.ipynb
 */

#pragma once

#include "definitions.h"


// Conv layer weights.
float conv_weights [FILTERS][KRN_ROWS][KRN_COLS]
	= {
			{
				{ 0.4673483669757843, 0.3169301152229309, -0.4063238203525543, -0.27705812454223633, -0.3412054181098938, -0.3522947430610657, -0.22984331846237183 },
				{ -0.0405549556016922, -0.3461513817310333, -0.27160364389419556, 0.08056344836950302, 0.019459104165434837, 0.24795325100421906, 0.4210970401763916 },
				{ -0.5080376267433167, -0.26964738965034485, -0.39687666296958923, 0.07612815499305725, 0.051023416221141815, 0.1806076318025589, 0.02096555009484291 },
				{ -0.8220502138137817, -0.4532051682472229, 0.09690305590629578, 0.4423099458217621, 0.2767070233821869, 0.1456705629825592, 0.21940143406391144 },
				{ -0.22503049671649933, 0.1582014411687851, 0.6689651012420654, 0.08065593242645264, 0.0545366033911705, 0.09239333868026733, -0.3859718441963196 },
				{ 0.47054433822631836, 0.5377171635627747, 0.47642427682876587, -0.012597762048244476, -0.07225404679775238, -0.20670689642429352, -0.10362543165683746 },
				{ 0.5170787572860718, 0.00848232302814722, -0.37722086906433105, -0.24422432482242584, -0.3977075219154358, 0.0943651795387268, -0.02101937308907509 }
			},
			{
				{ -0.2011553943157196, -0.0834830030798912, 0.17215366661548615, 0.3319789469242096, 0.21317780017852783, -0.07854301482439041, 0.30709806084632874 },
				{ 0.13141168653964996, 0.05100075528025627, 0.044921111315488815, 0.3345276713371277, 0.02276954986155033, 0.03049519658088684, 0.1737007349729538 },
				{ -0.2559385597705841, -0.5797169804573059, -0.437997043132782, 0.030124379321932793, 0.4155605137348175, 0.4804390072822571, 0.2663296163082123 },
				{ 0.21636635065078735, -0.40519484877586365, -0.6397744417190552, -0.35168346762657166, -0.08536142110824585, 0.010838325135409832, 0.5442356467247009 },
				{ 0.6723050475120544, -0.3608129322528839, -0.7445914149284363, -0.6236783862113953, 0.1356794536113739, 0.506622850894928, 0.34236520528793335 },
				{ 0.4065832793712616, 0.08826126903295517, -0.6341338157653809, -0.29097551107406616, -0.33743277192115784, -0.015214345417916775, 0.6431210041046143 },
				{ 0.025952529162168503, -0.695425808429718, -0.6309056282043457, -0.21149687469005585, 0.031189018860459328, 0.44616469740867615, 0.05577541142702103 }
			},
			{
				{ 0.40286147594451904, -0.05028511956334114, 0.4083463251590729, 0.45778176188468933, 0.4634581208229065, 0.061529818922281265, -0.3611392676830292 },
				{ 0.24627643823623657, 0.09215743094682693, 0.41298747062683105, 0.061637066304683685, -0.20465849339962006, -0.3995892405509949, 0.002200815826654434 },
				{ 0.0840286910533905, 0.5002639293670654, -0.006330640986561775, 0.47557300329208374, 0.030436286702752113, -0.4583408832550049, -0.5597302317619324 },
				{ 0.06855539232492447, 0.5378979444503784, 0.056753236800432205, -0.25409996509552, -0.7205685973167419, -0.7973910570144653, 0.21460331976413727 },
				{ -0.22274746000766754, 0.18828396499156952, 0.30979740619659424, -0.02981848642230034, -0.9799153804779053, -0.446088969707489, 0.2507147192955017 },
				{ 0.07530267536640167, 0.1935330480337143, 0.32003822922706604, -0.3547717034816742, -0.8712019920349121, -0.582852303981781, -0.05687427893280983 },
				{ 0.2710708975791931, 0.5298501253128052, 0.12374743074178696, 0.2647407650947571, -0.21934963762760162, -0.2884885370731354, 0.0414811410009861 }
			},
			{
				{ 0.3135504126548767, 0.5593900084495544, 0.25178977847099304, 0.15767855942249298, 0.5880721211433411, 0.3194296061992645, 0.5265018939971924 },
				{ -0.03072822093963623, 0.052303411066532135, 0.5082220435142517, 0.47234252095222473, 0.20366056263446808, 0.3688583970069885, 0.28680944442749023 },
				{ -0.3357093632221222, -0.48302966356277466, -0.4612977206707001, 0.2070474624633789, 0.12282870709896088, -0.20015546679496765, -0.030082430690526962 },
				{ -0.3232204020023346, -0.6982738375663757, -1.0327212810516357, -0.8516028523445129, -0.3857544958591461, -0.24048936367034912, -0.47596484422683716 },
				{ -0.20732927322387695, -0.45463821291923523, -0.6621922850608826, -1.1031742095947266, -0.9660739302635193, -0.7437517642974854, -0.32968324422836304 },
				{ -0.04385020211338997, 0.07713150978088379, 0.2351418435573578, 0.1848125159740448, 0.022342287003993988, 0.10625726729631424, -0.04907319322228432 },
				{ 0.32231563329696655, 0.4607104957103729, -0.0028196999337524176, 0.30381515622138977, 0.02502562664449215, 0.42349135875701904, 0.06445616483688354 }
			}
		};

// Conv layer biases.
float conv_biases [FILTERS] = { -0.058751314878463745, -0.0035869600251317024, -0.008531486615538597, 0.03930232673883438 };
