/*
 * This file is auto-generated by train.ipynb
 */

#pragma once

#include "definitions.h"


// Dense layer weights.
float dense_weights[FLAT_SIZE][DENSE_SIZE]
	 = {
			{ 0.027519257739186287, -0.002849810291081667, -0.055568207055330276, 0.08150647580623627, 0.040734004229307175, -0.06109607219696045, -0.05254177004098892, -0.025108646601438522, -0.05048889294266701, 0.10201351344585419 },
			{ -0.060702160000801086, 0.0011196815175935626, -0.133149653673172, 0.11834779381752014, -0.07531995326280594, -0.1517975628376007, -0.01053552608937025, 0.0002898950478993356, -0.002364732325077057, 0.03447353094816208 },
			{ -0.022926628589630127, 0.014334816485643387, -0.05438647046685219, -0.018926071003079414, -0.1459439992904663, -0.03759800270199776, 0.08612804114818573, -0.09181727468967438, -0.11685482412576675, -0.10428014397621155 },
			{ -0.10320912301540375, 0.08543870598077774, -0.10373634845018387, -0.03402073308825493, -0.21328535676002502, -0.06275852769613266, 0.1345614492893219, -0.06083230674266815, -0.2044144570827484, -0.141091451048851 },
			{ -0.022001447156071663, -0.053206805139780045, 0.015955576673150063, 0.20169439911842346, -0.18775348365306854, -0.10799679905176163, 0.1699889451265335, -0.2123599797487259, -0.10271169990301132, -0.1266101598739624 },
			{ -0.12960411608219147, -0.1429036557674408, 0.11698366701602936, -0.037502408027648926, -0.3322198987007141, -0.1778540462255478, 0.08015472441911697, -0.32939738035202026, -0.03388324752449989, -0.3329029679298401 },
			{ -0.06487735360860825, -0.20174922049045563, 0.16544272005558014, -0.10280992835760117, -0.5206791162490845, -0.036373935639858246, 0.18768669664859772, -0.487642765045166, -0.009629289619624615, -0.35536012053489685 },
			{ -0.1718681901693344, -0.026576029136776924, 0.13994696736335754, 0.10222337394952774, -0.3815270662307739, -0.04820474237203598, 0.10847295075654984, -0.43186843395233154, 0.009959370829164982, -0.2567737102508545 },
			{ -0.12044211477041245, 0.06358875334262848, 0.05868053808808327, -0.013542530126869678, -0.19364355504512787, 0.12829609215259552, 0.20502841472625732, -0.2877652049064636, -0.014221174642443657, -0.2370750904083252 },
			{ -0.16987855732440948, -0.08512390404939651, -0.04535330459475517, -0.007836291566491127, -0.21654821932315826, 0.14945366978645325, 0.08936646580696106, -0.18580162525177002, 0.20208144187927246, -0.22769486904144287 },
			{ -0.2128283679485321, -0.02190873585641384, -0.15974193811416626, -0.012517350725829601, -0.11138570308685303, 0.15671370923519135, 0.08304901421070099, -0.3376918137073517, 0.040442537516355515, -0.29249700903892517 },
			{ -0.22471149265766144, 0.02280520834028721, -0.17296278476715088, 0.016901126131415367, -0.056481510400772095, 0.05541825667023659, 0.1727449744939804, -0.24284721910953522, -0.02013450488448143, -0.157902792096138 },
			{ -0.09315671026706696, -0.10485027730464935, -0.08439601212739944, -0.08009123802185059, 0.08150970190763474, 0.015827637165784836, 0.16282999515533447, -0.013293785974383354, 0.019298063591122627, -0.5350437164306641 },
			{ -0.08425748348236084, -0.06334976851940155, -0.07792289555072784, -0.16265225410461426, 0.04025695100426674, -0.020636126399040222, 0.05669274553656578, -0.2651159167289734, 0.018318144604563713, -0.11682319641113281 },
			{ -0.06878156214952469, 0.05305490642786026, -0.0214186143130064, -0.005723440088331699, 0.03141346201300621, -0.03324050456285477, -0.05838397145271301, 0.08572514355182648, -0.0033278251066803932, 0.015938054770231247 },
			{ 0.047245170921087265, 0.10796160250902176, -0.04307257756590843, -0.058893900364637375, -0.117096908390522, 0.04045454040169716, 0.07715790718793869, -0.07093758136034012, -0.10942813754081726, -0.06763906031847 },
			{ 0.0016983511159196496, -0.06909649074077606, -0.2022559493780136, 0.08927963674068451, -0.06669273227453232, 0.01818959414958954, 0.11766478419303894, -0.06546902656555176, -0.27288925647735596, -0.20920562744140625 },
			{ -0.1122707650065422, -0.03528009355068207, 0.12023083120584488, 0.10587870329618454, -0.06683176010847092, -0.08375758677721024, 0.10201674699783325, 0.015076003037393093, -0.20427149534225464, -0.40082797408103943 },
			{ -0.11597857624292374, -0.07576394826173782, -0.055184267461299896, 0.03326432779431343, 0.012775071896612644, -0.14269974827766418, 0.05796001851558685, 0.02233109064400196, 0.06712209433317184, -0.5084898471832275 },
			{ 0.027273181825876236, -0.04878435283899307, 0.037427760660648346, 0.03023100644350052, -0.12581995129585266, -0.06668300181627274, 0.09247072041034698, -0.13612735271453857, 0.17379318177700043, -0.12075803428888321 },
			{ -0.08828406035900116, -0.0945201888680458, 0.026096191257238388, 0.08829853683710098, -0.12048114836215973, -0.09588973969221115, -0.07902203500270844, -0.17409859597682953, 0.04190486669540405, 0.14656098186969757 },
			{ -0.07310856878757477, -0.06071190536022186, -0.027291158214211464, -0.04363926500082016, -0.19418379664421082, 0.012618356384336948, -0.10473161935806274, -0.1186174675822258, 0.2094401717185974, 0.15695083141326904 },
			{ -0.01864495873451233, -0.014361616224050522, -0.09230636060237885, -0.0328991524875164, -0.06345442682504654, 0.023031743243336678, -0.0192919559776783, -0.13973529636859894, 0.10825751721858978, -0.03658246248960495 },
			{ -0.05166121944785118, -0.0660870224237442, -0.048681169748306274, -0.03009757585823536, 0.007585172541439533, 0.05886954069137573, 0.09450667351484299, -0.12341795116662979, 0.0031040958128869534, -0.1729552447795868 },
			{ -0.16322541236877441, -0.07306881248950958, -0.09664778411388397, 0.009406267665326595, 0.04993981868028641, 0.11143574863672256, 0.05779396370053291, -0.10714898258447647, -0.04694241285324097, -0.15417124330997467 },
			{ -0.047467101365327835, 0.0868278443813324, 0.09660448133945465, 0.0535358190536499, 0.07156616449356079, 0.051393717527389526, 0.040144674479961395, -0.2514026463031769, -0.06278321146965027, -0.14361779391765594 },
			{ -0.017400000244379044, 0.03895474597811699, 0.08432593941688538, 0.06397566944360733, 0.08485236763954163, -0.058256782591342926, 0.009408215992152691, -0.12917770445346832, -0.06459468603134155, -0.18450582027435303 },
			{ -0.28060272336006165, 0.028818966820836067, -0.1142517477273941, 0.0564352311193943, 0.10442275553941727, 0.19710732996463776, 0.09528247267007828, -0.448998361825943, -0.09685587137937546, -0.35497570037841797 },
			{ 0.04712367802858353, 0.08872620016336441, -0.14032213389873505, 0.0821802020072937, 0.017245354130864143, -0.08088579028844833, 0.018829545006155968, 0.058243006467819214, 0.016569754108786583, -0.1069173812866211 },
			{ -0.17362511157989502, -0.09012921899557114, -0.05749737098813057, -0.008359480649232864, -0.10489536076784134, 0.010494744405150414, 0.09677121043205261, -0.05779380351305008, -0.20462645590305328, -0.35376793146133423 },
			{ -0.15429691970348358, 0.017793362960219383, 0.033515993505716324, 0.10676007717847824, -0.10416383296251297, -0.19242289662361145, 0.10091289132833481, 0.07777360826730728, -0.09537515044212341, -0.3970024287700653 },
			{ -0.12694008648395538, -0.04904188960790634, -0.015486353076994419, 0.014485404826700687, -0.0034793673548847437, -0.11826792359352112, 0.062406428158283234, -0.08824203908443451, 0.026777425780892372, -0.0376921221613884 },
			{ -0.06606971472501755, -0.14828923344612122, 0.002036458346992731, -0.027485888451337814, -0.11467728763818741, -0.11166626960039139, 0.048578135669231415, -0.06525948643684387, 0.030614914372563362, 0.10253214091062546 },
			{ -0.16511516273021698, -0.21578346192836761, 0.05385521426796913, 0.0820896103978157, -0.13183827698230743, -0.117741659283638, -0.09135130792856216, -0.05400371924042702, 0.01114253606647253, 0.17597098648548126 },
			{ 0.004783680662512779, -0.12988926470279694, 0.048360563814640045, 0.09837803989648819, -0.08176911622285843, -0.08195893466472626, -0.011590531095862389, -0.09488854557275772, 0.024298405274748802, 0.23542970418930054 },
			{ -0.0865117609500885, -0.10354476422071457, 0.0723501443862915, 0.0641869530081749, -0.2258588671684265, 0.04486244544386864, -0.020506305620074272, -0.04999030753970146, 0.06691019982099533, 0.19612529873847961 },
			{ -0.04373379051685333, -0.10672274976968765, 0.0127631276845932, -0.0659828707575798, -0.2581253945827484, 0.07227305322885513, -0.022867640480399132, -0.09909094870090485, 0.09990773350000381, 0.1866457164287567 },
			{ 0.0023831685539335012, -0.017899421975016594, -0.09742047637701035, -0.10392466187477112, -0.006116529926657677, 0.1285330355167389, -0.024034317582845688, -0.09889160841703415, 0.08858735859394073, 0.08151490241289139 },
			{ -0.031037654727697372, 0.0616927295923233, -0.21424557268619537, -0.13449348509311676, 0.06796291470527649, 0.15389412641525269, -0.08378584682941437, 0.10898774117231369, 0.11115548759698868, -0.11623101681470871 },
			{ 0.01657191850244999, 0.0447092205286026, -0.18842890858650208, -0.041652508080005646, 0.08973092585802078, 0.12266410142183304, -0.005626531783491373, -0.09718620777130127, 0.09642565250396729, -0.048235680907964706 },
			{ -0.05938936397433281, 0.10642174631357193, -0.02576277405023575, -0.13574092090129852, 0.09044621139764786, 0.03322494775056839, -0.12359094619750977, -0.06933277100324631, 0.07827276736497879, -0.1396484524011612 },
			{ 0.013317489065229893, -0.10965435951948166, -0.10851395130157471, -0.03908936306834221, 0.10471072793006897, 0.10637006163597107, -0.060067445039749146, -0.12391989678144455, 0.07462728768587112, -0.14335720241069794 },
			{ -0.08478591591119766, 0.14887109398841858, -0.16225315630435944, 0.19603130221366882, -0.0709758922457695, -0.2258502095937729, -0.0007467364775948226, 0.07580815255641937, -0.1154111921787262, -0.29015278816223145 },
			{ -0.06570279598236084, 0.08689284324645996, 0.06795692443847656, 0.0022517628967761993, -0.08509676903486252, -0.1774691790342331, -0.06021071970462799, 0.01302463561296463, -0.08836465328931808, -0.2802533507347107 },
			{ -0.12499601393938065, -0.009204686619341373, 0.002313753357157111, -0.016939310356974602, 0.005670552141964436, -0.1070413812994957, -0.01622122712433338, -0.03367381542921066, 0.02516028843820095, 0.08263900876045227 },
			{ -0.04005701094865799, -0.11756943166255951, 0.06113746017217636, -0.04471435770392418, -0.11625644564628601, -0.10654162615537643, -0.14206193387508392, -0.03675512969493866, 0.12878970801830292, 0.14032816886901855 },
			{ -0.08732310682535172, -0.042376261204481125, -0.04163096472620964, 0.021876774728298187, -0.07446543127298355, -0.10708586126565933, -0.11018877476453781, -0.033979445695877075, 0.10012559592723846, 0.11083777993917465 },
			{ -0.0963221937417984, -0.12669435143470764, 0.004609935451298952, 0.07390869408845901, -0.1906697005033493, -0.10731083154678345, -0.049541350454092026, -0.0885363221168518, 0.10470662266016006, 0.194721519947052 },
			{ 0.061414122581481934, -0.036324601620435715, -0.0062436205334961414, -0.07369335740804672, -0.14193858206272125, -0.14301757514476776, -0.06081226095557213, -0.1216529905796051, 0.07612280547618866, 0.2738575041294098 },
			{ 0.04857144504785538, -0.17794404923915863, -0.060589343309402466, -0.06351771950721741, -0.19602985680103302, -0.01324873324483633, -8.698183228261769e-05, -0.016521569341421127, 0.016815854236483574, 0.21427494287490845 },
			{ 0.007795477285981178, -0.05122186988592148, -0.1112934872508049, -0.16161282360553741, -0.144586443901062, -0.111583411693573, -0.004525003954768181, 0.04721756651997566, 0.08327968418598175, 0.1326145976781845 },
			{ 0.03184778615832329, 0.008000669069588184, -0.12581086158752441, -0.07073178887367249, 0.11422459036111832, 0.046021901071071625, -0.1289256066083908, -0.004532904829829931, -0.046005357056856155, 0.026946591213345528 },
			{ -0.04975545033812523, 0.10536704957485199, -0.20940804481506348, -0.09207159280776978, 0.21477758884429932, 0.15634670853614807, -0.07758832722902298, 0.07535652816295624, 0.05264010652899742, -0.10516922920942307 },
			{ 0.010784532874822617, 0.13728861510753632, -0.22149410843849182, -0.2320251613855362, 0.2034672349691391, 0.2187107503414154, -0.14128775894641876, 0.02674947679042816, 0.004827834665775299, -0.16428613662719727 },
			{ -0.03726360574364662, -0.015171355567872524, -0.11294315755367279, -0.12333997339010239, 0.12313132733106613, 0.14975111186504364, -0.11959288269281387, 0.04058465361595154, 0.08780305832624435, -0.10877206176519394 },
			{ -0.05340546369552612, -0.14703644812107086, -0.011556974612176418, -0.18266010284423828, 0.08721465617418289, 0.20130185782909393, -0.3141725957393646, -0.12285146117210388, 0.0036251854617148638, -0.2570418119430542 },
			{ -0.11318758875131607, -0.1540735512971878, -0.07642803341150284, 0.08909334987401962, -0.005867344792932272, -0.36394771933555603, -0.13807044923305511, 0.12379361689090729, -0.010782611556351185, -0.13256852328777313 },
			{ 0.02858966588973999, -0.08980906009674072, -0.0739683136343956, 0.025636358186602592, -0.036954671144485474, -0.1609906554222107, -0.20253191888332367, 0.01861415058374405, 0.0939522385597229, -0.01140612829476595 },
			{ -0.13698551058769226, -0.10541947931051254, -0.07962596416473389, 0.03650061413645744, -0.22837957739830017, 0.008366795256733894, -0.10695097595453262, -0.049405645579099655, 0.0017914838390424848, 0.10834239423274994 },
			{ 0.026652591302990913, -0.07310592383146286, 0.042798593640327454, 0.09781520813703537, -0.10443613678216934, -0.08712852746248245, -0.07530616968870163, -0.05579593777656555, 0.04136814549565315, 0.004841244779527187 },
			{ 0.06461922824382782, -0.15193471312522888, -0.0005713794962503016, 0.11139153689146042, -0.07690106332302094, -0.1454509198665619, -0.04246736317873001, -0.10836254060268402, 0.13301874697208405, 0.15507687628269196 },
			{ 0.028928453102707863, -0.17621250450611115, -0.003605722449719906, 0.13762685656547546, 0.06035750359296799, -0.11830825358629227, -0.03448772430419922, -0.17775458097457886, 0.13006137311458588, 0.16182106733322144 },
			{ 0.005389611702412367, -0.043351911008358, -0.0164524856954813, 0.072952501475811, 0.012687657959759235, -0.10148850083351135, -0.03246834874153137, -0.06858430057764053, -0.041274912655353546, 0.20148640871047974 },
			{ 0.1127539649605751, 0.015431227162480354, -0.17169798910617828, -0.03656116873025894, -0.10446691513061523, -0.07115540653467178, 0.04758904501795769, -0.08940152078866959, -0.04534020647406578, 0.21876880526542664 },
			{ -0.05477491393685341, 0.0539996400475502, -0.1270889937877655, -0.032579272985458374, -0.18931475281715393, -0.060556210577487946, 0.10482217371463776, -0.05961853265762329, 0.0534343495965004, 0.10041950643062592 },
			{ -0.2151068150997162, -0.09307816624641418, -0.12954628467559814, 0.11103954166173935, 0.049003005027770996, -0.12174851447343826, 0.13050688803195953, -0.018399687483906746, 0.15391135215759277, 0.008345804177224636 },
			{ -0.10257251560688019, -0.05162492021918297, -0.03431081771850586, -0.02302621118724346, 0.07320065051317215, -0.0690879300236702, 0.08543185144662857, 0.08827711641788483, 0.07966149598360062, -0.016323043033480644 },
			{ -0.03414551541209221, 0.14928700029850006, -0.11818946897983551, -0.06261569261550903, 0.22871848940849304, 0.131581649184227, -0.07523543387651443, 0.13727885484695435, 0.18014873564243317, -0.16949591040611267 },
			{ 0.0456126369535923, -0.044197507202625275, -0.04976670444011688, -0.3269160985946655, -0.003691387129947543, 0.1909739375114441, -0.17234590649604797, 0.14034150540828705, -0.04367907717823982, -0.12920737266540527 },
			{ 0.0927416980266571, -0.05669639632105827, -0.16991521418094635, -0.35720333456993103, -0.04587660729885101, 0.12562362849712372, -0.03880118206143379, -0.16695408523082733, 0.09973951429128647, 0.0646626353263855 },
			{ -0.027191320434212685, -0.2971375584602356, -0.012071806937456131, 0.048606064170598984, 0.03789196163415909, -0.13387712836265564, -0.16252517700195312, -0.01528277900069952, 0.14978760480880737, -0.19309446215629578 },
			{ -0.07771023362874985, -0.045047957450151443, -0.021095557138323784, 0.09911259263753891, -0.07322292029857635, -0.2209390252828598, -0.1749393194913864, 0.08198738098144531, -0.020579511299729347, -0.046307895332574844 },
			{ 0.005857176147401333, -0.03191283717751503, -0.11484383791685104, 0.08379333466291428, 0.006856194231659174, -0.20481370389461517, -0.03366914018988609, -0.017750585451722145, 0.07190217822790146, 0.09835456311702728 },
			{ 0.14534594118595123, 0.0637722909450531, 0.1300739347934723, -0.031599391251802444, 0.03157540783286095, -0.24695315957069397, -0.0017362762009724975, -0.16648632287979126, 0.03784925863146782, 0.07231200486421585 },
			{ 0.08956502377986908, -0.06999313086271286, 0.0820995569229126, 0.17437191307544708, 0.16347786784172058, -0.22921864688396454, -0.07322660088539124, -0.14527538418769836, -0.08654393255710602, 0.08324585855007172 },
			{ 0.0995263010263443, -0.06087980419397354, 0.05295846238732338, 0.184667706489563, 0.0527273453772068, -0.2712373733520508, 0.08043232560157776, -0.029495108872652054, -0.012025441974401474, 0.029006678611040115 },
			{ 0.03204842656850815, -0.007511571981012821, -0.1465216875076294, 0.10286422073841095, 0.12518110871315002, -0.10335133224725723, 0.09902260452508926, -0.1485590636730194, -0.06138918548822403, 0.021872736513614655 },
			{ -0.035166677087545395, 0.09721971303224564, -0.023012299090623856, 0.09617973119020462, 0.035450562834739685, -0.23133714497089386, 0.19266542792320251, -0.1807296723127365, -0.16485734283924103, 0.0752604529261589 },
			{ -0.2555091083049774, -0.051764387637376785, -0.07681243866682053, 0.1755944788455963, -0.0225882139056921, -0.19231942296028137, 0.11478544026613235, -0.10657084733247757, 0.08467528223991394, 0.10525573045015335 },
			{ -0.4773263931274414, -0.24026912450790405, -0.04047268629074097, 0.17357726395130157, 0.08183060586452484, -0.3628714084625244, 0.13482722640037537, -0.07157573848962784, 0.1861794888973236, 0.11504996567964554 },
			{ -0.25567013025283813, -0.22546301782131195, -0.07724132388830185, 0.2040705680847168, 0.15287810564041138, -0.17201533913612366, 0.08553323894739151, -0.05378315597772598, 0.11254582554101944, 0.005413082428276539 },
			{ -0.19336822628974915, 0.019928527995944023, 0.07322721928358078, 0.0993080586194992, 0.1874849647283554, -0.05148354172706604, -0.08336328715085983, -0.1253630667924881, 0.12697164714336395, -0.1102946549654007 },
			{ -0.04183206334710121, 0.07214429974555969, 0.074516162276268, -0.1791803389787674, 0.14128100872039795, -0.1703481376171112, -0.026414310559630394, 0.02549348957836628, -0.020502006635069847, -0.03137277811765671 },
			{ 0.05682437866926193, -0.21753616631031036, 0.11161277443170547, -0.27888375520706177, -0.00885620154440403, 0.16181986033916473, 0.06232815235853195, -0.15608371794223785, -0.29674237966537476, -0.1676885187625885 },
			{ -0.19440166652202606, 0.01910722255706787, -0.07745401561260223, -0.08820530772209167, -0.023919779807329178, -0.08872926980257034, -0.14719857275485992, 0.062237173318862915, 0.08107204735279083, -0.0870102271437645 },
			{ -0.032856013625860214, -0.0736336037516594, 0.07302944362163544, -0.09740983694791794, -0.003333638422191143, -0.06975778937339783, 0.04965375363826752, -0.0130489906296134, -0.04525196924805641, -0.015238937921822071 },
			{ 0.02668134868144989, -0.04889250919222832, 0.08426644653081894, 0.0046102125197649, 0.05180342495441437, -0.14060615003108978, -0.06984984874725342, 0.02630184218287468, 0.004901044070720673, -0.022665828466415405 },
			{ 0.16662195324897766, 0.04575661942362785, 0.2126528024673462, -0.0077139330096542835, 0.04098813980817795, -0.17672951519489288, -0.04995881766080856, -0.08309513330459595, -0.024824388325214386, -0.022251658141613007 },
			{ 0.17295005917549133, 0.016097379848361015, 0.24250291287899017, -0.006721039302647114, 0.023318080231547356, -0.19718995690345764, -0.06500035524368286, -0.0733954906463623, -0.12849479913711548, -0.15442807972431183 },
			{ 0.20033039152622223, -0.03541605547070503, 0.1418175846338272, 0.15233466029167175, 0.14506471157073975, -0.0457216277718544, -0.04688567668199539, -0.04252324998378754, -0.043203726410865784, -0.15832675993442535 },
			{ -0.017394382506608963, -0.11198623478412628, 0.0621616393327713, 0.09391721338033676, -0.038459137082099915, -0.12689141929149628, 0.10281717777252197, -0.0784708559513092, 0.05436902493238449, -0.1639770120382309 },
			{ -0.2267749160528183, -0.08042371273040771, -0.06650960445404053, 0.1706632822751999, -0.14328208565711975, -0.080409936606884, 0.11433395743370056, -0.1892220824956894, -0.03618742525577545, 0.2555541396141052 },
			{ -0.2894318103790283, -0.10404451191425323, 0.07013504207134247, 0.0957348421216011, 0.021892523393034935, -0.1533598005771637, 0.11366691440343857, -0.09246064722537994, 0.07627110928297043, 0.04971126466989517 },
			{ -0.2210569530725479, -0.42393991351127625, -0.016192112118005753, 0.15123827755451202, -0.013610601425170898, -0.35187646746635437, 0.15803854167461395, -0.06355661898851395, 0.20780785381793976, 0.033288322389125824 },
			{ -0.08002874255180359, -0.2979062497615814, -0.0014397043269127607, 0.05294277146458626, 0.14878292381763458, -0.23868431150913239, 0.010523384436964989, -0.0016755713149905205, 0.20559066534042358, 0.004520689602941275 },
			{ -0.03050905466079712, -0.2210189700126648, 0.03509373590350151, 0.07738465070724487, 0.08355741202831268, -0.17455831170082092, 0.005954202730208635, 0.1310545951128006, 0.17571917176246643, 0.005136613268405199 },
			{ -0.0058363620191812515, -0.1904062032699585, 0.10331665724515915, 0.0974755734205246, -0.10415531694889069, -0.02828005887567997, 0.11801331490278244, 0.016132207587361336, 0.023845018818974495, -0.284231573343277 },
			{ 0.015054374933242798, -0.2475472241640091, 0.10816000401973724, -0.07493839412927628, -0.04906721040606499, 0.15324462950229645, -0.11988826841115952, -0.003223102306947112, -0.05541923642158508, -0.39015185832977295 },
			{ -0.1863572895526886, 0.24687045812606812, -0.025099117308855057, -0.2193153202533722, 0.05516975745558739, -0.06129789352416992, -0.17366881668567657, -0.07498688995838165, -0.1171712875366211, 0.13977187871932983 },
			{ 0.14519020915031433, 0.13646669685840607, 0.09465193003416061, -0.2463688999414444, 0.09585896134376526, -0.12730884552001953, 0.06157611310482025, -0.06681043654680252, 0.004892454016953707, -0.054075051099061966 },
			{ -0.0819709450006485, -0.016530675813555717, 0.17762130498886108, -0.12279431521892548, 0.007458430249243975, 0.003845039289444685, -0.011732079088687897, 0.0003515066928230226, 0.039785221219062805, -0.13875406980514526 },
			{ 0.17545941472053528, -0.1386251300573349, 0.11773968487977982, -0.18472911417484283, 0.03314699977636337, 0.0218540970236063, -0.056224603205919266, 0.010998092591762543, 0.04531513899564743, -0.23047907650470734 },
			{ -0.0062882620841264725, -0.24647998809814453, 0.10640798509120941, -0.14134876430034637, 0.09357163310050964, -0.0008931667543947697, 0.08811169117689133, 0.09985567629337311, 0.22326941788196564, -0.3195768892765045 },
			{ 0.030316784977912903, -0.09868671000003815, 0.2825593650341034, -0.03943398594856262, -0.07997496426105499, -0.10201150178909302, 0.10152704268693924, 0.08552976697683334, 0.04696625843644142, -0.3771200478076935 },
			{ -0.0987076386809349, -0.07432735711336136, 0.20563499629497528, 0.13157965242862701, -0.14450684189796448, -0.09862977266311646, 0.08120551705360413, 0.030058102682232857, 0.16343429684638977, -0.14091336727142334 },
			{ -0.2729842960834503, -0.060949768871068954, 0.0605267696082592, 0.1397152841091156, 0.012768648564815521, -0.19201292097568512, 0.10410090535879135, -0.06471116840839386, -0.01517839077860117, -0.012505415827035904 },
			{ -0.12074515223503113, -0.2763936221599579, 0.13858063519001007, -0.02511325478553772, 0.07341690361499786, -0.05562611669301987, 0.14722904562950134, -0.11034523695707321, 0.06974763423204422, 0.10157402604818344 },
			{ -0.13746130466461182, -0.5754170417785645, 0.01924724504351616, 0.07768391817808151, 0.04499123618006706, -0.2023535966873169, 0.10032549500465393, 0.06968773156404495, 0.16677188873291016, -0.03475423529744148 },
			{ 0.062130123376846313, -0.36000552773475647, 0.046020667999982834, 0.016712140291929245, 0.11042605340480804, -0.1439390778541565, 0.0746888816356659, -0.022010328248143196, 0.1735147386789322, -0.15825685858726501 },
			{ 0.024840442463755608, -0.09372234344482422, 0.01644221507012844, 0.013238632120192051, 0.04430907219648361, -0.13899829983711243, 0.04623416066169739, 0.01714925281703472, 0.13843533396720886, -0.16809651255607605 },
			{ -0.06666723638772964, -0.05685943737626076, 0.1971789002418518, 0.05185878649353981, 0.10734576731920242, 0.007147806230932474, 0.07303747534751892, -0.1265142560005188, 0.042392879724502563, -0.3169608414173126 },
			{ -0.20213156938552856, -0.08046140521764755, 0.21328237652778625, -0.02780783176422119, 0.04620504006743431, -0.10104069858789444, -0.06985312700271606, -0.3035343289375305, 0.19738420844078064, -0.18980155885219574 },
			{ -0.04260963201522827, 0.09631625562906265, 0.09610282629728317, -0.16219696402549744, 0.1837942749261856, -0.025258133187890053, -0.33364978432655334, -0.1587817370891571, -0.36876314878463745, -0.006090851500630379 },
			{ -0.05639922246336937, -0.24371126294136047, 0.12652313709259033, -0.014062987640500069, -0.14044149219989777, -0.012888310477137566, 0.040328025817871094, -0.030917517840862274, 0.15731675922870636, -0.09713084995746613 },
			{ -0.061821967363357544, -0.12854185700416565, 0.14365148544311523, -0.0528770349919796, 0.03145814687013626, 0.01861080527305603, 0.11064492166042328, 0.07826227694749832, 0.2872641682624817, -0.21460074186325073 },
			{ -0.08711911737918854, -0.1124267727136612, -0.014495262876152992, -0.13866263628005981, -0.06179028004407883, -0.08744433522224426, -0.12003292143344879, 0.13232718408107758, 0.13279402256011963, -0.19366267323493958 },
			{ -0.051270492374897, -0.13237982988357544, 0.0422753281891346, -0.05433051660656929, 0.023437481373548508, -0.20638598501682281, -0.07593575119972229, 0.20676559209823608, 0.15450206398963928, -0.2159051150083542 },
			{ -0.04120634123682976, -0.03823268041014671, 0.17579038441181183, -0.10838983207941055, -0.1806420385837555, -0.17916953563690186, -0.02485753409564495, 0.2655819058418274, 0.21644434332847595, -0.28289178013801575 },
			{ -0.02523144707083702, -0.11453305929899216, 0.09793232381343842, -0.05795709043741226, -0.18300671875476837, -0.033154819160699844, -0.03256180137395859, -0.05665728822350502, 0.22791501879692078, -0.07766325026750565 },
			{ -0.0836324691772461, -0.31365180015563965, 0.0684424340724945, -0.08176277577877045, -0.07006422430276871, -0.020615218207240105, -0.09206242859363556, -0.0629558116197586, 0.008167601190507412, -0.02034069411456585 },
			{ 0.024567842483520508, -0.40452706813812256, 0.22683826088905334, 0.04149915277957916, -0.032429467886686325, -0.0713702142238617, 0.0010574290063232183, -0.03246548771858215, -0.016501888632774353, -0.012346584349870682 },
			{ 0.02239239029586315, -0.1518627256155014, 0.13875967264175415, 0.15225595235824585, -0.11677095293998718, -0.0553855374455452, 0.09149850159883499, 0.015405666083097458, 0.08064213395118713, -0.16987118124961853 },
			{ 0.085459865629673, 0.05702335759997368, 0.10052881389856339, 0.08369092643260956, -0.07889888435602188, -0.18080127239227295, -0.043775174766778946, 0.12807601690292358, 0.16745060682296753, -0.2576604187488556 },
			{ 0.007584606762975454, 0.0044326819479465485, -0.04605773836374283, -0.07842613011598587, -0.031348444521427155, -0.20579011738300323, 0.029376739636063576, 0.1316985934972763, 0.0656583309173584, -0.16883184015750885 },
			{ 0.01164353359490633, 0.07172208279371262, -0.04298507794737816, -0.1529936045408249, -0.07398902624845505, -0.06917773932218552, -0.021163832396268845, -0.13084450364112854, 0.13460557162761688, -0.1810266673564911 },
			{ -0.2694840431213379, 0.12291419506072998, 0.20421810448169708, -0.12825331091880798, -0.14005771279335022, 0.005954116117209196, -0.09887009114027023, -0.20427727699279785, 0.09898746758699417, -0.11779210716485977 },
			{ -0.014327975921332836, -0.1944756656885147, 0.049375392496585846, 0.02301918715238571, -0.1524628847837448, 0.1505080610513687, -0.18747441470623016, -0.039925090968608856, -0.07478388398885727, -0.1709987372159958 },
			{ -0.0276865866035223, -0.01211361400783062, 0.0016337003326043487, 0.010389681905508041, 0.04215635731816292, 0.14131756126880646, -0.010084192268550396, -0.17882706224918365, 0.12661181390285492, -0.032472748309373856 },
			{ -0.09095652401447296, -0.0535147562623024, 0.07460244745016098, 0.021780071780085564, 0.004165261052548885, 0.09396318346261978, -0.028766535222530365, 0.014697184786200523, 0.04019710049033165, -0.20846030116081238 },
			{ -0.25927767157554626, -0.005241336300969124, 0.04427086561918259, 0.019250648096203804, 0.19018889963626862, 0.039213065057992935, -0.1830994039773941, 0.21381673216819763, 0.09018471091985703, -0.1469871997833252 },
			{ -0.125912606716156, 0.06703238189220428, 0.07354527711868286, -0.0768958106637001, -0.07847480475902557, -0.08120960742235184, -0.13413240015506744, 0.1515999585390091, -0.012564756907522678, -0.22151710093021393 },
			{ -0.024533603340387344, 0.04921910911798477, 0.03130494803190231, -0.011332616209983826, -0.03301488608121872, -0.10892079770565033, -0.11712997406721115, 0.12530972063541412, 0.09569385647773743, -0.08312293142080307 },
			{ 0.05488133430480957, -0.1542017012834549, 0.12132292985916138, -0.12628774344921112, -0.06659878045320511, 0.0036458345130085945, -0.15910375118255615, 0.008837874978780746, 0.037229761481285095, -0.1344989687204361 },
			{ 0.0632619857788086, -0.1185648962855339, 0.03876873850822449, 0.004869909957051277, -0.10755384713411331, 0.02184629999101162, -0.004479028284549713, -0.02423001267015934, 0.0489400252699852, 0.10457701981067657 },
			{ 0.1572597771883011, -0.1757289618253708, 0.2272191196680069, -0.028268706053495407, -0.2231111228466034, 0.05489785224199295, -0.006831404287368059, -0.23942454159259796, 0.07543554902076721, -0.05725748464465141 },
			{ 0.057281799614429474, -0.009525134228169918, 0.1858271211385727, 0.1338696926832199, -0.26512354612350464, 0.023287808522582054, 0.04882610961794853, -0.05594682693481445, 0.03395165130496025, -0.06867550313472748 },
			{ 0.1458997279405594, 0.1681327372789383, 0.10049864649772644, 0.005428692791610956, -0.19712425768375397, -0.03752068057656288, 0.03478487208485603, 0.08808628469705582, -0.028196508064866066, -0.13283243775367737 },
			{ 0.05616089329123497, 0.08215808868408203, -0.027035877108573914, 0.017632242292165756, -0.20573487877845764, -0.05517278239130974, 0.13379599153995514, 0.07711407542228699, 0.06709114462137222, -0.16695308685302734 },
			{ -0.09090516716241837, 0.14922381937503815, -0.037689946591854095, -0.20270155370235443, 0.0011922584380954504, -0.018331477418541908, 0.15940840542316437, -0.24469847977161407, -0.07359285652637482, -0.03668533265590668 },
			{ -0.012408779934048653, -0.0019127572886645794, 0.2692745625972748, 0.03606900945305824, -0.05533337965607643, -0.0394638366997242, -0.1262301504611969, -0.3781377375125885, -0.16800837218761444, 0.06025978922843933 },
			{ -0.03013775311410427, -0.09331340342760086, 0.05441688746213913, 0.0006832103244960308, 0.03028683178126812, -0.11620336771011353, 0.0019736667163670063, -0.09144018590450287, -0.025044651702046394, -0.13328060507774353 },
			{ -0.05293210223317146, 0.01665799506008625, 0.10961857438087463, 0.05438746511936188, 0.12830834090709686, -0.006349198520183563, -0.1328626424074173, -0.23368684947490692, -0.15768685936927795, -0.04884172976016998 },
			{ -0.1420239955186844, 0.1657971739768982, 0.014042970724403858, -0.02048623003065586, -0.05350780114531517, -0.003415944054722786, -0.18964307010173798, -0.04131075367331505, -0.13366544246673584, 0.05210832133889198 },
			{ -0.20330435037612915, 0.24186398088932037, -0.02371210791170597, -0.0069957696832716465, -0.06458587944507599, -0.002630087314173579, -0.22849933803081512, 0.12965019047260284, -0.017230644822120667, -0.03336319327354431 },
			{ -0.09988252073526382, 0.13717840611934662, -0.029559696093201637, 0.07830103486776352, -0.028299588710069656, -0.016571639105677605, -0.0687892809510231, 0.04271421954035759, -0.06580323725938797, 0.007540726102888584 },
			{ 0.06474732607603073, -0.042697593569755554, -0.05860543251037598, -0.01929517462849617, -0.05954694747924805, 0.04492802545428276, -0.09008777141571045, 0.04694462567567825, -0.12927092611789703, 0.011990658938884735 },
			{ 0.14938190579414368, -0.11129851639270782, 0.06285551190376282, 0.04359804838895798, -0.10642865300178528, 0.10086864978075027, -0.1570436954498291, 0.01203084085136652, 0.030337419360876083, 0.01875530555844307 },
			{ 0.04003973677754402, -0.2809348702430725, -0.001977734500542283, 0.03542120009660721, -0.1958228349685669, 0.0067960405722260475, -0.12685057520866394, -0.2608640491962433, 0.1249244436621666, 0.06866887211799622 },
			{ 0.13835912942886353, -0.46482884883880615, 0.13382531702518463, -0.01995117776095867, -0.32234928011894226, 0.06428099423646927, -0.12900803983211517, -0.16809192299842834, 0.15730534493923187, -0.04329543188214302 },
			{ 0.20259882509708405, -0.2862691283226013, 0.004412164445966482, 0.0715336799621582, -0.478552907705307, 0.021449845284223557, -0.007991011254489422, -0.19329361617565155, -0.001684118527919054, -0.048292506486177444 },
			{ 0.09072303771972656, -0.18181028962135315, 0.0796508714556694, 0.06209161877632141, -0.2861258387565613, 0.06510362029075623, 0.19371244311332703, -0.12073822319507599, 0.019923143088817596, -0.17232036590576172 },
			{ 0.046481598168611526, 0.13533684611320496, 0.03767568618059158, -0.07904653996229172, -0.22171826660633087, 0.10462962836027145, 0.1440291702747345, -0.2568441331386566, 0.00857920479029417, -0.06196043640375137 },
			{ 0.034223515540361404, -0.08496551215648651, 0.04178052395582199, -0.13363519310951233, -0.07253310829401016, -0.027863018214702606, -0.08808866888284683, -0.08368021994829178, -0.03956621512770653, 0.039668235927820206 },
			{ 0.09288619458675385, -0.24847498536109924, 0.19481027126312256, -0.026935795322060585, 0.02218123897910118, 0.0987313985824585, -0.17389629781246185, -0.30519554018974304, -0.27431628108024597, 0.16264326870441437 },
			{ 0.02755354344844818, 0.2075643241405487, 0.10993007570505142, 0.02382880449295044, -0.285670667886734, -0.11377769708633423, -0.0597144290804863, -0.24929869174957275, 0.07158436626195908, -0.18130965530872345 },
			{ 0.09018464386463165, 0.20231863856315613, 0.046821415424346924, -0.018282314762473106, -0.1695847511291504, -0.056056708097457886, -0.3254680633544922, -0.05100433900952339, -0.026914551854133606, -0.07070526480674744 },
			{ -0.08486051112413406, 0.20377221703529358, -0.06728999316692352, -0.048640020191669464, -0.12320246547460556, -0.006312277168035507, -0.17545238137245178, 0.013656516559422016, -0.20070190727710724, -0.011116892099380493 },
			{ -0.13185404241085052, 0.17284147441387177, -0.06011698395013809, 0.1386086642742157, -0.1135663390159607, -0.10912928730249405, -0.08816283941268921, 0.15847143530845642, -0.19257034361362457, 0.146961972117424 },
			{ -0.3091660141944885, -0.022022167220711708, 0.0050291456282138824, 0.04999653995037079, 0.10187158733606339, 0.19846563041210175, -0.22086769342422485, 0.0851728692650795, -0.3651593029499054, 0.03246929123997688 },
			{ -0.0868602991104126, 0.050722651183605194, -0.09226971119642258, 0.17492355406284332, -0.055587247014045715, 0.2251179814338684, -0.2053244411945343, 0.0014298602472990751, -0.20205235481262207, -0.021190298721194267 },
			{ -0.09333392977714539, -0.30251649022102356, -0.1430606245994568, 0.14772263169288635, -0.02028743363916874, 0.056538231670856476, -0.17028231918811798, -0.0229782797396183, -0.04599142074584961, 0.15483196079730988 },
			{ -0.039536457508802414, -0.35942262411117554, -0.1135970950126648, 0.17208193242549896, -0.20626451075077057, 0.12242966890335083, -0.13978922367095947, -0.11680812388658524, 0.01620469242334366, -0.09007500857114792 },
			{ -0.022215092554688454, -0.5626625418663025, -0.1515021026134491, 0.29261305928230286, -0.20563378930091858, 0.18347342312335968, -0.11784504354000092, -0.2186269909143448, 0.17839916050434113, -0.13210813701152802 },
			{ -0.07201652973890305, -0.39376750588417053, -0.12743955850601196, 0.3553457260131836, -0.008947455324232578, 0.11465734988451004, 0.3079104423522949, -0.3696337640285492, 0.060938041657209396, -0.14844979345798492 },
			{ -0.04733133316040039, -0.18330274522304535, 0.007655282039195299, 0.16362665593624115, -0.07195308059453964, 0.13862746953964233, 0.19285762310028076, -0.28239116072654724, 0.05512421205639839, -0.1699516922235489 },
			{ -0.007030318025499582, -0.04596351087093353, 0.0032475190237164497, 0.011590158566832542, -0.42206552624702454, 0.2053835242986679, 0.01193416491150856, -0.1793821156024933, 0.020749570801854134, 0.04870140925049782 },
			{ 0.04093082249164581, -0.14844028651714325, 0.2359866499900818, -0.09860562533140182, -0.03946937993168831, 0.128660649061203, -0.04736075550317764, -0.1176176592707634, -0.21256087720394135, 0.058139365166425705 },
			{ -0.12324646860361099, 0.11121296882629395, -0.04770837724208832, -0.07660643011331558, -0.14932267367839813, -0.07913417369127274, 0.08799570798873901, -0.2652147114276886, -0.0670701339840889, 0.16350816190242767 },
			{ -0.06051561236381531, -0.02029934711754322, -0.2305133044719696, 0.2501310706138611, -0.259802907705307, -0.07548360526561737, -0.04276864975690842, 0.06151234731078148, -0.16733983159065247, -0.11087057739496231 },
			{ -0.1520063728094101, -0.012139950878918171, -0.259418785572052, 0.22891353070735931, -0.10573206841945648, -0.05905650183558464, -0.3590913414955139, 0.03440249711275101, -0.17316925525665283, 0.03122601844370365 },
			{ -0.29506540298461914, 0.02913678251206875, -0.23461061716079712, 0.08468598872423172, -0.050160180777311325, -0.03984981030225754, -0.16179205477237701, 0.15272067487239838, -0.13238008320331573, 0.10540304332971573 },
			{ -0.35448402166366577, 0.13564787805080414, -0.24950850009918213, -0.04580255225300789, -0.016997776925563812, -0.016462653875350952, -0.39106354117393494, 0.21654823422431946, -0.06205181032419205, 0.13205021619796753 },
			{ -0.2708444893360138, -0.05324045568704605, -0.18839576840400696, -0.045762043446302414, -0.12340572476387024, 0.05507821962237358, -0.505389928817749, 0.2020777314901352, -0.11137212067842484, 0.15438176691532135 },
			{ -0.29279783368110657, -0.2160528302192688, -0.14643201231956482, 0.2588278353214264, -0.06547030061483383, 0.13203540444374084, -0.37352487444877625, 0.12197503447532654, -0.3571476340293884, 0.1380442976951599 },
			{ -0.14953090250492096, -0.2966691851615906, -0.04388982430100441, 0.0610344372689724, -0.15246157348155975, 0.13527463376522064, -0.04457967355847359, 0.14033548533916473, -0.13019010424613953, 0.06398869305849075 },
			{ -0.21556653082370758, -0.5618066787719727, -0.3841526508331299, 0.3267691433429718, -0.0685611441731453, 0.14160650968551636, 0.060921862721443176, 0.0861884281039238, -0.2697458267211914, 0.0735962986946106 },
			{ -0.25192907452583313, -0.4591142535209656, -0.40924373269081116, 0.41250792145729065, -0.09275709092617035, 0.3635767698287964, -0.06338715553283691, -0.018680017441511154, 0.08538699895143509, -0.04959568753838539 },
			{ -0.22089354693889618, -0.2551439106464386, -0.25677672028541565, 0.42431044578552246, -0.13293799757957458, 0.2410563975572586, 0.044445738196372986, -0.005171284079551697, 0.005756596568971872, -0.13238641619682312 },
			{ -0.05213605985045433, -0.05591515824198723, 0.009486242197453976, 0.06596337258815765, -0.3476673662662506, 0.27827927470207214, -0.09447240084409714, -0.007068190723657608, -0.18204762041568756, -0.15727341175079346 },
			{ -0.12334399670362473, 0.014009763486683369, -0.0157563965767622, 0.015604487620294094, -0.08918669074773788, 0.12034982442855835, -0.04794102907180786, 0.052732955664396286, -0.10247067362070084, -0.1697661280632019 },
			{ -0.03631202131509781, 0.01791343279182911, -0.14308063685894012, -0.03540096431970596, 0.017089718952775, 0.13771846890449524, 0.05755942687392235, -0.06420695036649704, -0.11543645709753036, -0.19961440563201904 },
			{ 0.06640857458114624, 0.11929547041654587, 0.03282236307859421, -0.02660023607313633, 0.02228485606610775, 0.11010060459375381, -0.1929808408021927, -0.13363930583000183, -0.02524028718471527, 0.04818214476108551 },
			{ -0.08031889796257019, -0.11076812446117401, -0.23900273442268372, 0.10179813206195831, -0.15504780411720276, -0.20398254692554474, -0.07425470650196075, 0.19356496632099152, -0.3986396789550781, -0.029889525845646858 },
			{ -0.045864786952733994, -0.12786906957626343, -0.39370107650756836, 0.1220475360751152, -0.1344795972108841, -0.2169380635023117, -0.04528481140732765, 0.12057673931121826, -0.4333118200302124, 0.23696066439151764 },
			{ -0.2526998519897461, 0.1303502321243286, -0.32631775736808777, 0.3558103144168854, -0.2236078977584839, -0.37449800968170166, -0.26622268557548523, 0.0754331424832344, -0.27722644805908203, 0.08624805510044098 },
			{ -0.3323429524898529, -0.14084696769714355, -0.30324938893318176, 0.38973069190979004, -0.218815416097641, -0.10502475500106812, -0.09663192182779312, 0.039760250598192215, -0.3322460949420929, 0.08070791512727737 },
			{ -0.3919912278652191, 0.004583835136145353, -0.210582435131073, 0.1517312079668045, -0.32199135422706604, 0.17346403002738953, -0.30707311630249023, 0.14113353192806244, -0.36550086736679077, 0.07512132078409195 },
			{ -0.06065049394965172, -0.08416494727134705, -0.21146652102470398, 0.23160222172737122, -0.05197575315833092, 0.08254676312208176, -0.4705178737640381, 0.03682170435786247, -0.14742082357406616, -0.033943623304367065 },
			{ 0.19922634959220886, -0.038192253559827805, -0.3086725175380707, -0.006148690357804298, 1.31664564833045e-05, 0.3389858603477478, -0.13224270939826965, -0.16583125293254852, -0.04465101286768913, 0.011993512511253357 },
			{ -0.039463434368371964, 0.11154202371835709, -0.3986874520778656, -0.047390636056661606, 0.0371035635471344, 0.093663789331913, -0.17249995470046997, 0.16975605487823486, 0.14648349583148956, 0.006230244878679514 },
			{ -0.01106965634971857, 0.09664210677146912, -0.37636658549308777, 0.2274748831987381, 0.11785466969013214, 0.04679736867547035, -0.190664604306221, 0.036398518830537796, 0.0510680116713047, -0.17076057195663452 },
			{ -0.048861730843782425, 0.06683160364627838, -0.15498827397823334, 0.06382408738136292, 0.04589660465717316, 0.04447111114859581, -0.0854865163564682, -0.031121307983994484, -0.08849204331636429, -0.18402093648910522 },
			{ 0.11732445657253265, 0.2165249139070511, 0.13387010991573334, 0.08935485035181046, 0.2238115817308426, -0.012141011655330658, -0.2168501615524292, -0.1926421970129013, -0.11903765797615051, -0.18296192586421967 },
			{ -0.23480001091957092, 0.10638444870710373, 0.03993580862879753, 0.07060737162828445, 0.04400427266955376, 0.015783602371811867, 0.1702929586172104, -0.06959404051303864, 0.11460079997777939, -0.2669117748737335 },
			{ -0.05097275227308273, -0.04233159124851227, 0.06970768421888351, -0.1140122264623642, 0.0591474249958992, -0.09028283506631851, -0.13283368945121765, -0.2710995376110077, 0.1094590425491333, -0.05062928423285484 },
			{ -0.16363286972045898, -0.28574034571647644, 0.09189564734697342, 0.05271229147911072, -0.03135455399751663, 0.13646157085895538, -0.2659115195274353, -0.24860161542892456, 0.08761975914239883, 0.20526409149169922 },
			{ -0.038448505103588104, 0.0921228751540184, -0.16464976966381073, -0.0026408983394503593, -0.015157574787735939, -0.11549552530050278, 0.10872171819210052, 0.13695359230041504, -0.19806553423404694, -0.031712520867586136 },
			{ -0.07723364979028702, 0.08088572323322296, -0.0071106222458183765, 0.0398758128285408, -0.26802295446395874, -0.18780012428760529, 0.22908218204975128, -0.018244225531816483, -0.13080300390720367, -0.007772443350404501 },
			{ -0.014675871469080448, -0.14571353793144226, 0.2949507236480713, 0.061892978847026825, -0.21184824407100677, -0.08014830946922302, 0.11733441054821014, -0.12312266230583191, -0.06584182381629944, -0.055573027580976486 },
			{ 0.053160421550273895, -0.04603653773665428, 0.06039350852370262, 0.10196903347969055, -0.32648879289627075, 0.05444112420082092, 0.04916374012827873, -0.41945841908454895, -0.01814255863428116, -0.12170194089412689 },
			{ -0.10335276275873184, -0.047396618872880936, 0.12525497376918793, 0.14998941123485565, -0.5247026085853577, 0.0732024535536766, 0.18830418586730957, -0.30945634841918945, -0.030099153518676758, 0.005422258283942938 },
			{ -0.15837205946445465, 0.036135099828243256, 0.0009066899656318128, -0.02535500004887581, -0.16006256639957428, -0.04915608465671539, 0.3044634461402893, -0.12402039021253586, -0.019356101751327515, -0.0414351150393486 },
			{ -0.1101527288556099, 0.004604664631187916, -0.20316730439662933, -0.03592545911669731, -0.07748697698116302, -0.054145410656929016, 0.13922928273677826, -0.4641984701156616, 0.11805381625890732, -0.41195905208587646 },
			{ 0.0008557484834454954, 0.008169793523848057, -0.15014958381652832, -0.17520087957382202, -0.24655137956142426, 0.053074292838573456, 0.22606498003005981, -0.5051290988922119, 0.07365822792053223, -0.5007602572441101 },
			{ -0.060647279024124146, 0.06481678038835526, -0.3404752314090729, -0.19276827573776245, -0.12657929956912994, 0.22113682329654694, 0.31553202867507935, -0.4267798960208893, -0.20433861017227173, -0.350467711687088 },
			{ -0.2192019671201706, 0.09750529378652573, -0.34645307064056396, -0.4665616750717163, -0.06388887017965317, -0.17560669779777527, 0.46766507625579834, -0.02768862433731556, -0.04131152480840683, -0.5059130787849426 },
			{ -0.2511528730392456, 0.15547358989715576, -0.10642299056053162, -0.3975834846496582, -0.06269962340593338, 0.014774315059185028, 0.2556323707103729, 0.059519801288843155, -0.15787343680858612, -0.26184746623039246 },
			{ -0.07633305341005325, -0.006421762052923441, -0.10506033897399902, -0.2534518539905548, -0.047666165977716446, 0.31700757145881653, -0.015120722353458405, -0.035257488489151, -0.11752376705408096, -0.07163328677415848 },
			{ -0.09607582539319992, 0.031011240556836128, -0.11076358705759048, -0.14328712224960327, -0.08159754425287247, 0.07280654460191727, 0.31682559847831726, 0.11032943427562714, -0.019963469356298447, -0.15651319921016693 },
			{ -0.002071926137432456, -0.06051640957593918, 0.07915700227022171, -0.04809540882706642, -0.11871182173490524, 0.1523275375366211, 0.1424366682767868, 0.10982689261436462, -0.22523602843284607, 0.015919385477900505 },
			{ -0.14419440925121307, 0.06398162990808487, -0.23789238929748535, 0.06262597441673279, -0.1705426275730133, -0.0917011946439743, 0.1686663180589676, 0.1775089055299759, -0.13724744319915771, 0.0358460359275341 },
			{ -0.050082024186849594, 0.15727302432060242, -0.07619073987007141, -0.016581811010837555, -0.14602239429950714, -0.09042859822511673, 0.088463693857193, 0.18188297748565674, -0.12394005805253983, -0.1593247503042221 },
			{ -0.09421903640031815, -0.12757660448551178, 0.026283305138349533, 0.08139558881521225, -0.09213503450155258, -0.07338888943195343, 0.03438616544008255, -0.0018474317621439695, -0.009788778610527515, -0.09193993359804153 },
			{ -0.026671625673770905, -0.08941806852817535, 0.09808443486690521, 0.010792508721351624, -0.22565871477127075, -0.05500519275665283, 0.10946584492921829, -0.20992706716060638, -0.053131964057683945, 0.10699891299009323 },
			{ -0.08143942058086395, 0.026442883536219597, 0.050513461232185364, 0.026614002883434296, -0.22202841937541962, -0.0344933345913887, -0.011442885734140873, -0.07008027285337448, 0.021466167643666267, 0.03130481019616127 },
			{ -0.015305948443710804, 0.034167107194662094, -0.04942039027810097, 0.09016719460487366, -0.08883821219205856, -0.15240024030208588, 0.08384466171264648, -0.0792655348777771, 0.14136482775211334, -0.07055540382862091 },
			{ -0.06003112718462944, 0.024230558425188065, -0.07802855968475342, 0.016410069540143013, 0.09814532846212387, -0.07294166833162308, 0.2302119880914688, -0.26479488611221313, -0.09455737471580505, -0.30879658460617065 },
			{ -0.013041018508374691, 0.016914376989006996, -0.042069029062986374, -0.18773314356803894, 0.12267398834228516, -0.07321853935718536, 0.19903723895549774, -0.38360556960105896, 0.16860143840312958, -0.23891274631023407 },
			{ -0.24551263451576233, 0.27831345796585083, -0.4382116496562958, -0.43996232748031616, 0.22793011367321014, 0.07043539732694626, 0.20081467926502228, -0.5418100357055664, 0.06349252164363861, -0.4067191183567047 },
			{ -0.23662878572940826, 0.29964736104011536, -0.5052111148834229, -0.49759766459465027, 0.28937390446662903, 0.3476276993751526, 0.13892607390880585, -0.21972127258777618, -0.07384776324033737, -0.5191231966018677 },
			{ -0.4069786071777344, 0.0828908383846283, -0.15395724773406982, -0.42318692803382874, 0.3741338849067688, 0.34571540355682373, -0.047716956585645676, -0.07882259786128998, -0.1758999526500702, -0.3819792568683624 },
			{ -0.2268531322479248, 0.2945476174354553, -0.17684447765350342, -0.29059675335884094, 0.009407675825059414, 0.41893598437309265, 0.1135212630033493, -0.24625612795352936, -0.10274028033018112, -0.3515099883079529 },
			{ -0.21691708266735077, -0.031192511320114136, -0.09607955068349838, -0.032528363168239594, 0.056396424770355225, 0.12421957403421402, 0.008705907501280308, -0.033144112676382065, 0.013020545244216919, -0.09414835274219513 },
			{ -0.15683743357658386, 0.052744846791028976, -0.06957691162824631, 0.018832828849554062, 0.09382881224155426, 0.001510010682977736, -0.048777442425489426, -0.288813054561615, -0.13690465688705444, -0.2909995913505554 },
			{ -0.224403515458107, 0.14155247807502747, -0.04236695170402527, 0.022367242723703384, -0.05319860950112343, -0.19976960122585297, 0.18610134720802307, -0.08436592668294907, 0.027875112369656563, -0.10755056887865067 },
			{ 0.0904635339975357, 0.025905530899763107, -0.0731186717748642, 0.06364671885967255, -0.08724261075258255, -0.11479321867227554, 0.01509628165513277, 0.17945025861263275, -0.09508712589740753, 0.011619115248322487 },
			{ -0.0714033767580986, -0.12715066969394684, -0.10211589932441711, -0.017711125314235687, -0.0583108551800251, 0.043211374431848526, -0.015009099617600441, 0.026046108454465866, 0.052346326410770416, 0.0431366041302681 },
			{ -0.07468142360448837, -0.01939847692847252, 0.07423003017902374, -0.010236678645014763, -0.07194066047668457, 0.07475315779447556, 0.12916742265224457, 0.07855614274740219, 0.019899247214198112, 0.038507476449012756 },
			{ -0.0017476339126005769, -0.0013669019099324942, 0.10280101746320724, -0.06520643085241318, 0.021527539938688278, 0.00940470676869154, -0.0975767970085144, -0.03928549215197563, -0.022949783131480217, -0.11749846488237381 },
			{ -0.01536019891500473, -0.011534485034644604, 0.13280357420444489, -0.06829676032066345, 0.1735701709985733, -0.017911165952682495, -0.03830762207508087, -0.14649459719657898, 0.010482975281774998, -0.07237232476472855 },
			{ -0.009302747435867786, 0.008775199763476849, -0.03941037505865097, -0.016224827617406845, 0.3885228633880615, -0.05741368979215622, 0.05343809723854065, -0.4427702724933624, -0.10917171835899353, -0.20231588184833527 },
			{ -0.0008915874641388655, 0.21292686462402344, 0.10301600396633148, -0.07201111316680908, 0.462054580450058, -0.16555571556091309, 0.07877547293901443, -0.44689345359802246, -0.29298725724220276, -0.36800286173820496 },
			{ -0.11991429328918457, 0.35503220558166504, -0.09490121901035309, 3.491654933895916e-05, 0.5592952966690063, -0.34390899538993835, 0.1565912961959839, -0.507538914680481, -0.21630387008190155, -0.6240962743759155 },
			{ -0.15976981818675995, 0.36593392491340637, -0.08803577721118927, -0.14912080764770508, 0.40267908573150635, -0.07257609069347382, 0.006732938811182976, -0.052792396396398544, -0.17392165958881378, -0.7875234484672546 },
			{ -0.43590807914733887, 0.11556243896484375, -0.07866431772708893, -0.19128704071044922, 0.42964598536491394, 0.2343083620071411, -0.2528490126132965, 0.2561439573764801, -0.09752514213323593, -0.5464527010917664 },
			{ -0.2190018892288208, 0.18669019639492035, 0.16602608561515808, 0.007135976105928421, 0.1497347354888916, 0.2899080216884613, -0.1321130394935608, 0.025317924097180367, -0.06839551031589508, -0.3993040919303894 },
			{ -0.10007455199956894, 0.03446393460035324, 0.05037065967917442, -0.0552971176803112, 0.06394631415605545, 0.06965893507003784, -0.16061051189899445, 0.13805536925792694, 0.039689384400844574, -0.06408087909221649 },
			{ 0.07436049729585648, 0.0650862455368042, -0.010319444350898266, 0.026438135653734207, 0.062052372843027115, 0.0016087384428828955, -0.022791855037212372, -0.2189958244562149, -0.1077970638871193, -0.2532372772693634 },
			{ -0.26501837372779846, 0.0806281715631485, -0.06471158564090729, -0.031204476952552795, -0.04155704751610756, -0.20013488829135895, 0.12231128662824631, 0.05155066400766373, 0.03946293890476227, -0.16002605855464935 },
			{ -0.023130716755986214, 0.044132549315690994, -0.18951578438282013, 0.005525415297597647, -0.08385640382766724, 0.0007450617849826813, -0.05344292148947716, 0.092119961977005, 0.00048773601884022355, 0.02008523792028427 },
			{ -0.04231679067015648, -0.01741941273212433, -0.10525462031364441, 0.004600709304213524, -0.10120639204978943, 0.03872407227754593, -0.02563256211578846, 0.12224739789962769, 0.05063599348068237, -0.03469625860452652 },
			{ -0.02315068617463112, 0.004226642195135355, -0.02333543822169304, 0.04066472873091698, 0.06722865253686905, -0.04497317969799042, -0.0064485687762498856, 0.09292934834957123, 0.11602800339460373, -0.09541656076908112 },
			{ -0.11038745194673538, -0.11299149692058563, 0.10083400458097458, -0.008581645786762238, 0.006238485686480999, -0.042842160910367966, -0.069939024746418, 0.11499185860157013, 0.07928726822137833, 0.05600221827626228 },
			{ -0.07848276197910309, -0.042536411434412, -0.014452817849814892, -0.001218819641508162, 0.16733336448669434, -0.013543026521801949, 0.00431059580296278, 0.05304436385631561, -0.09683293104171753, -0.07355726510286331 },
			{ -0.048985231667757034, 0.012290187180042267, 0.04710796847939491, 0.0826965942978859, 0.24003992974758148, -0.16132040321826935, 0.06495072692632675, 0.03045223280787468, -0.17979583144187927, -0.12653663754463196 },
			{ 0.09434015303850174, 0.1296684592962265, 0.15536460280418396, 0.029980257153511047, 0.2372475266456604, -0.36680588126182556, -0.16968491673469543, 0.021979885175824165, -0.09811779856681824, -0.15845975279808044 },
			{ 0.004910781513899565, 0.18194210529327393, 0.210062175989151, -0.04226462170481682, 0.26381468772888184, -0.4214973747730255, -0.17237594723701477, -0.13099384307861328, -0.10845764726400375, 0.04067906737327576 },
			{ 0.056449271738529205, -0.04116065427660942, 0.15781497955322266, -0.06830189377069473, 0.3055853843688965, -0.503005862236023, -0.07607828080654144, -0.14580285549163818, 0.10857804119586945, -0.1303534358739853 },
			{ 0.14731906354427338, -0.22721470892429352, 0.14447461068630219, 0.04534502327442169, 0.4101315140724182, -0.2995581030845642, -0.16516481339931488, 0.17886322736740112, 0.07209058105945587, -0.1859300434589386 },
			{ 0.03611946478486061, -0.13258323073387146, 0.09468782693147659, 0.026746153831481934, 0.045064013451337814, -0.09391628950834274, -0.03942102938890457, 0.03603648766875267, 0.23378559947013855, -0.13064400851726532 },
			{ 0.028349746018648148, -0.01379586011171341, 0.028715137392282486, -0.1293967068195343, 0.07416792213916779, -0.11304497718811035, 0.14735190570354462, 0.13718244433403015, 0.02946748584508896, -0.05868024006485939 },
			{ 0.18579286336898804, 0.05056965351104736, -0.05680302530527115, 0.004541703499853611, 0.012732104398310184, -0.09674687683582306, -0.05857185646891594, 0.10713598132133484, 0.11637414991855621, -0.06497702747583389 },
			{ -0.11152290552854538, -0.046029236167669296, -0.23428505659103394, 0.01231383066624403, -0.030663223937153816, -0.12040577083826065, 0.1315266191959381, 0.03982347995042801, 0.17976877093315125, -0.11956625431776047 },
			{ 0.06482431292533875, -0.03966142237186432, -0.08732970058917999, -0.0009436244145035744, -0.07153580337762833, -0.04410069063305855, -0.06333381682634354, 0.09927953034639359, 0.10243161022663116, 0.0694257989525795 },
			{ 0.08590161800384521, 0.005201306659728289, -0.13764585554599762, -0.09486332535743713, 0.00010196276707574725, -0.04230120778083801, 0.021214153617620468, 0.026607559993863106, 0.12977911531925201, 0.002395613817498088 },
			{ 0.03704914078116417, -0.015356023795902729, -0.12296810001134872, -0.12126927077770233, -0.015896575525403023, -0.04992152377963066, -2.1237225155346096e-05, 0.10653039813041687, 0.10014256089925766, 0.006329304073005915 },
			{ 0.04066583141684532, -0.14777116477489471, -0.01816765032708645, -0.055878520011901855, 0.1491333544254303, 0.044082965701818466, -0.036657415330410004, 0.061795659363269806, 0.07365188747644424, 0.0485743023455143 },
			{ 0.09318980574607849, 0.050452522933483124, 0.0026285338681191206, 0.05090269073843956, 0.01180519349873066, -0.017802918329834938, -0.17856396734714508, -0.05004529654979706, -0.014544031582772732, -0.09605401754379272 },
			{ 0.09270129352807999, -0.005056728143244982, 0.047943342477083206, 0.03513244166970253, -0.151997372508049, -0.11772148311138153, -0.23496222496032715, 0.1007702648639679, -0.03678034618496895, -0.13225427269935608 },
			{ 0.02228817343711853, 0.07038085162639618, 0.2827639877796173, -0.13384446501731873, -0.027264490723609924, -0.3352709114551544, -0.25409597158432007, 0.0744224488735199, -0.039554413408041, 0.02078428864479065 },
			{ 0.04452400282025337, -0.01769244484603405, 0.17822861671447754, -0.06405217200517654, 0.013130653649568558, -0.3563483953475952, -0.19920231401920319, 0.002138405106961727, 0.03683890402317047, 0.03214539960026741 },
			{ 0.23079076409339905, -0.11813551932573318, 0.1170610636472702, -0.11707659810781479, 0.01021165307611227, -0.4235054552555084, -0.2577335834503174, -0.10678721219301224, 0.08461613953113556, 0.04185488075017929 },
			{ 0.14993302524089813, -0.20509687066078186, 0.20939378440380096, 0.012340700253844261, 0.08929210901260376, -0.36094093322753906, -0.19563427567481995, -0.29785528779029846, 0.15954014658927917, 0.08337109535932541 },
			{ 0.09157437831163406, -0.1997237354516983, -0.09909141063690186, -0.30006837844848633, -0.20399491488933563, -0.14720037579536438, -0.054359279572963715, -0.16157487034797668, 0.3114655315876007, 0.1645250916481018 },
			{ -0.021533941850066185, -0.24944362044334412, -0.14585912227630615, -0.29541242122650146, 0.10146141797304153, -0.09464862197637558, 0.06950782984495163, -0.13953296840190887, 0.1690322607755661, 0.006482603959739208 },
			{ 0.1584562212228775, 0.003660519141703844, -0.04223256930708885, 0.020723629742860794, -0.3245607912540436, -0.16405896842479706, -0.08229921013116837, -0.06370944529771805, 0.1537645161151886, -0.020068777725100517 },
			{ -0.1899692714214325, 0.13292166590690613, -0.09675157815217972, -0.11604884266853333, -0.04876714572310448, 0.036564476788043976, 0.07155179232358932, 0.07989964634180069, 0.14019660651683807, -0.07307539135217667 },
			{ 0.08677787333726883, -0.04340950772166252, -0.15378808975219727, -0.1904989331960678, -0.058589428663253784, -0.1443016529083252, -0.02321142703294754, 0.07741746306419373, 0.1039108857512474, 0.007772126235067844 },
			{ -0.013722105883061886, -0.08433561772108078, -0.06491440534591675, -0.1945657879114151, 0.14218641817569733, -0.0972963348031044, 0.03929385542869568, -0.08241283893585205, 0.07078157365322113, 0.012294524349272251 },
			{ -0.010997137986123562, -0.06032118201255798, -0.13239000737667084, -0.04616336151957512, -0.022773919627070427, 0.053957998752593994, 0.012471070513129234, -0.07096313685178757, 0.14646947383880615, 0.0031494537834078074 },
			{ 0.06263051182031631, -0.06075778231024742, -0.14894326031208038, -0.06707745790481567, 0.07825933396816254, 0.08734804391860962, -0.019554749131202698, 0.026629464700818062, 0.14189334213733673, 0.07647363841533661 },
			{ 0.026493314653635025, 0.020108705386519432, -0.1487322598695755, 0.003136378712952137, -0.23960787057876587, 0.031483881175518036, -0.09775187075138092, -0.03756008669734001, 0.10588832944631577, 0.051603518426418304 },
			{ 0.06486178934574127, 0.1405882090330124, -0.0015828037867322564, 0.004599978215992451, -0.24540214240550995, -0.008237695321440697, -0.23352211713790894, 0.1618337631225586, 0.07470567524433136, -0.006260081194341183 },
			{ 0.2310185730457306, 0.14069658517837524, 0.09555184096097946, -0.10406267642974854, -0.05270487442612648, -0.1722114533185959, -0.2663728594779968, 0.23126566410064697, -0.06941314041614532, -0.025813356041908264 },
			{ 0.19341431558132172, 0.11150156706571579, 0.1563688963651657, -0.15474390983581543, -0.0027272445149719715, -0.18779179453849792, -0.4299708306789398, 0.03432448208332062, -0.011710627935826778, -0.019477536901831627 },
			{ 0.24038495123386383, -0.03595610707998276, 0.14474241435527802, -0.33855533599853516, 0.010665955021977425, -0.1291961818933487, -0.19372199475765228, -0.07170054316520691, -0.03412120044231415, 0.06238618865609169 },
			{ 0.1793641895055771, -0.011183183640241623, 0.18617327511310577, -0.386886328458786, -0.17147602140903473, -0.17743012309074402, -0.1472368985414505, -0.22384978830814362, 0.09883411228656769, 0.11183163523674011 },
			{ 0.2826146185398102, -0.0569564588367939, 0.119471475481987, -0.2327899932861328, 0.0367811843752861, 0.06348810344934464, -0.10302507132291794, -0.33426257967948914, 0.031070424243807793, 0.31922364234924316 },
			{ 0.1865917444229126, -0.221670001745224, 0.01943105272948742, -0.3257709741592407, 0.10827639698982239, -0.020204251632094383, 0.034208111464977264, -0.31534019112586975, -0.04340646043419838, 0.09350957721471786 },
			{ 0.06691063940525055, 0.0006231614388525486, -0.06037425249814987, -0.17363807559013367, -0.1590469479560852, -0.10752885043621063, 0.036854878067970276, -0.1411496251821518, 0.03626019135117531, 0.019221847876906395 },
			{ -0.08592047542333603, 0.015771638602018356, 0.008212666027247906, -0.28078794479370117, 0.01731185056269169, 0.03612660989165306, -0.1410524696111679, -0.021339498460292816, 0.10600492358207703, 0.053152866661548615 },
			{ 0.02938161790370941, -0.03021411783993244, -0.09544399380683899, -0.30884599685668945, -0.006502332165837288, 0.008688852190971375, 0.04283890128135681, 0.061488524079322815, 0.1580144464969635, 0.0053878407925367355 },
			{ 0.03949373587965965, -0.2051466405391693, -0.08864226937294006, -0.3395644724369049, 0.018499748781323433, 0.027303515002131462, -0.01495531015098095, -0.15324319899082184, 0.218889519572258, 0.04503098875284195 },
			{ 0.047869112342596054, -0.21512454748153687, -0.17427143454551697, -0.13877145946025848, 0.026672882959246635, -0.0708170160651207, 0.03285166248679161, -0.07548899948596954, 0.08907613903284073, 0.040251877158880234 },
			{ 0.045212022960186005, -0.0881308764219284, -0.21739505231380463, -0.011933284811675549, 0.0030417130328714848, -0.010036632418632507, 0.1256822794675827, -0.07012853026390076, 0.03931821137666702, 0.09598702192306519 },
			{ 0.045080382376909256, 0.04593869671225548, -0.16004106402397156, 0.039728835225105286, -0.06571677327156067, 0.06847456842660904, -0.18955031037330627, -0.05778919532895088, 0.178211510181427, 0.09755469858646393 },
			{ -0.13150425255298615, 0.11203650385141373, -0.15984207391738892, -0.058613743633031845, -0.20661431550979614, -0.042921461164951324, -0.24341703951358795, 0.14184676110744476, 0.07280559837818146, 0.02750711515545845 },
			{ 0.2331288754940033, 0.008357375860214233, -0.10758925974369049, -0.1830950528383255, -0.1317727267742157, 0.013029036112129688, -0.183587446808815, 0.16760112345218658, -0.10074026137590408, 0.030954692512750626 },
			{ 0.15970493853092194, 0.18041758239269257, -0.036062125116586685, -0.27811679244041443, 0.07658812403678894, 0.08792100846767426, -0.29019713401794434, 0.07934795320034027, -0.23850230872631073, 0.022304486483335495 },
			{ 0.1365412324666977, 0.08612886816263199, 0.03783544525504112, -0.20831109583377838, 0.008826423436403275, 0.02181684970855713, -0.10115186870098114, -0.008070620708167553, -0.4170721173286438, 0.2877734303474426 },
			{ 0.24771955609321594, -0.2216620147228241, -0.09297175705432892, -0.2312818467617035, -0.17152594029903412, 0.04560023546218872, -0.010739468038082123, -0.033786628395318985, -0.06305953860282898, 0.1809527575969696 },
			{ 0.11697105318307877, -0.11759714037179947, -0.017117641866207123, 0.12302280962467194, -0.018613524734973907, -0.03790506720542908, -0.0907931849360466, -0.22469055652618408, -0.12315616756677628, 0.16250862181186676 },
			{ 0.06338275969028473, 0.005447044502943754, -0.06567460298538208, -0.18748308718204498, 0.038245026022195816, 0.18504993617534637, -0.19831256568431854, -0.013085947372019291, -0.21841910481452942, 0.09100771695375443 },
			{ 0.05437985807657242, -0.21464376151561737, -0.09840662032365799, -0.1404169797897339, 0.016342006623744965, 0.19291774928569794, -0.013699306175112724, 0.04526343569159508, -0.10352643579244614, -0.02755829319357872 },
			{ -0.0011169752106070518, 0.15685810148715973, -0.03536888211965561, -0.1542549431324005, 0.043861571699380875, 0.06278334558010101, -0.12266392260789871, -0.03835785388946533, 0.013137556612491608, 0.08159949630498886 },
			{ 0.049555785953998566, -0.18742844462394714, -0.09817864000797272, -0.2967892289161682, 0.01645328477025032, -0.10085409879684448, 0.15205438435077667, -0.06611615419387817, 0.2012777477502823, 0.1119961068034172 },
			{ 0.11982172727584839, -0.30302736163139343, -0.05164175108075142, -0.3347495198249817, 0.05078523978590965, -0.10003652423620224, 0.1027008593082428, -0.1296961009502411, 0.13799390196800232, 0.12681911885738373 },
			{ 0.0914565920829773, -0.22463467717170715, -0.16868504881858826, -0.20626118779182434, 0.05663390830159187, 0.004728099796921015, 0.06968234479427338, -0.14019259810447693, 0.07234503328800201, 0.18499134480953217 },
			{ 0.0006106661166995764, -0.12431979179382324, -0.09982174634933472, -0.09506077319383621, 0.03735678270459175, 0.06938820332288742, 0.14315597712993622, -0.13844318687915802, 0.16415104269981384, -0.0008468781597912312 },
			{ -0.1417672336101532, 0.11494790017604828, -0.1360139399766922, 0.10464935749769211, 0.034294307231903076, 0.006816728040575981, 0.03789232298731804, -0.1672302782535553, 0.2032725065946579, -0.09838300943374634 },
			{ -0.18534688651561737, 0.10017327219247818, -0.19064109027385712, -0.01920211687684059, -0.0569131001830101, 0.06805326044559479, -0.08874853700399399, -0.07413697987794876, -0.03280073404312134, 0.1124022826552391 },
			{ 0.09284579008817673, -0.04039419814944267, -0.18752558529376984, 0.01867229864001274, 0.05205672234296799, 0.1800842136144638, 0.008864808827638626, 0.040282636880874634, -0.055880747735500336, 0.2129262238740921 },
			{ 0.1423003375530243, 0.22330163419246674, -0.19623784720897675, -0.07203873991966248, -0.0745917558670044, 0.01877143420279026, -0.028758324682712555, 0.0753515437245369, -0.05695773661136627, 0.10435690730810165 },
			{ 0.19590860605239868, -0.14265601336956024, -0.32069793343544006, 0.022530632093548775, -0.0029271948151290417, 0.08833760023117065, -0.07165306806564331, 0.1112760379910469, -0.15150690078735352, 0.07233478128910065 },
			{ 0.1613401621580124, -0.2015504688024521, -0.4528389573097229, -0.026345418766140938, 0.004981593228876591, 0.07318700104951859, 0.03991907462477684, -0.0006773120840080082, -0.0702505111694336, -0.044335540384054184 },
			{ 0.030423343181610107, -0.08242782950401306, -0.17335650324821472, -0.0004759893927257508, 0.38097134232521057, 0.0424346998333931, -0.0933191329240799, -0.027123428881168365, 0.0043009803630411625, -0.017731301486492157 },
			{ -0.08330637216567993, 0.048768963664770126, -0.01112045906484127, -0.12287983298301697, 0.12917867302894592, 0.026537710800766945, -0.10957640409469604, 0.011340371333062649, -0.12286144495010376, -0.10308763384819031 },
			{ 0.10672609508037567, -0.17111915349960327, -0.011856473982334137, 0.019749220460653305, 0.15244202315807343, 0.09216979891061783, -0.18128885328769684, 0.06293454766273499, -0.1393267959356308, -0.06011867895722389 },
			{ 0.02237921766936779, -0.13309329748153687, 0.14255554974079132, 0.03143231198191643, 0.11026761680841446, 0.023004386574029922, -0.17532409727573395, -0.03737366944551468, -0.08496648818254471, 0.08454550802707672 },
			{ 0.07637663930654526, -0.23514647781848907, 0.04143204912543297, -0.0946698859333992, -0.09369033575057983, -0.014420928433537483, 0.08464691787958145, -0.21629047393798828, 0.15783116221427917, 0.10681477934122086 },
			{ 0.02029123343527317, -0.12665125727653503, -0.06663712114095688, -0.14705653488636017, 0.04260322079062462, -0.16620740294456482, 0.05090909078717232, -0.17731408774852753, 0.08046118915081024, -0.008970865979790688 },
			{ 0.0352119505405426, -0.11556994169950485, -7.068283593980595e-05, -0.13968342542648315, -0.007766537368297577, -0.09133709967136383, -0.004715035669505596, -0.07537663727998734, 0.03572767227888107, 0.04637192562222481 },
			{ 0.10717311501502991, -0.17158064246177673, 0.01489781029522419, 0.04252723231911659, 0.11365551501512527, -0.042911604046821594, 0.0894007533788681, -0.11542459577322006, 0.059558916836977005, 0.007607557345181704 },
			{ -0.00886510405689478, 0.12458712607622147, -0.08974603563547134, 0.05230984464287758, 0.041544992476701736, 0.033627718687057495, 0.08153670281171799, -0.12689435482025146, 0.026612145826220512, -0.043935686349868774 },
			{ -0.2518141269683838, 0.12984265387058258, -0.14177291095256805, -0.004927470814436674, 0.06483831256628036, -0.03219471871852875, -0.08855576068162918, -0.08673095703125, 0.016916535794734955, -0.039481375366449356 },
			{ -0.03166228160262108, 0.06842141598463058, -0.14514309167861938, 0.06465356796979904, 0.08667434751987457, 0.0644015297293663, -0.008740591816604137, -0.07695158571004868, -0.04772474616765976, 0.014857168309390545 },
			{ -0.020402640104293823, -0.31058669090270996, -0.3545153737068176, -0.0625062957406044, -0.1481577306985855, 0.06962035596370697, 0.05587989464402199, 0.10254975408315659, 0.039297327399253845, 0.11102866381406784 },
			{ 0.0031478831078857183, -0.5225539803504944, -0.4574369490146637, -0.01763247512280941, 0.07919090986251831, 0.07019910961389542, 0.05956677347421646, -0.015069682151079178, 0.10132753103971481, -0.0006947071524336934 },
			{ -0.003646949538961053, -0.3312157988548279, -0.24631664156913757, 0.02908887155354023, 0.0146797439083457, 0.08151020854711533, 0.02424110285937786, -0.014809553511440754, 0.1761506199836731, -0.021509312093257904 },
			{ -0.12207092344760895, -0.00691650016233325, 0.026541084051132202, -0.186177060008049, -0.035015545785427094, 0.05218275263905525, -0.03267248347401619, 0.022018328309059143, 0.17142169177532196, -0.007735941093415022 },
			{ -0.07767696678638458, -0.05773407220840454, 0.08505045622587204, -0.0864851176738739, 0.0456060953438282, 0.07202586531639099, -0.1044786125421524, 0.05585009977221489, -0.027086248621344566, -0.30134010314941406 },
			{ -0.11221475154161453, -0.031436748802661896, -0.03129127621650696, -0.10415855050086975, 0.08971470594406128, 0.111478291451931, -0.10744033008813858, -0.07881073653697968, -0.00805721152573824, -0.10757231712341309 },
			{ 0.0697314590215683, -0.04949193820357323, 0.05869081988930702, 0.07676336914300919, 0.04818505793809891, -0.08440124988555908, -0.01994132250547409, -0.208416149020195, -0.15147578716278076, -0.0399102121591568 },
			{ 0.06966070085763931, -0.07778319716453552, 0.01617388054728508, 0.002759863855317235, -0.013137887232005596, 0.05340813100337982, 0.06116822734475136, -0.2892177700996399, 0.12844884395599365, 0.0930967703461647 },
			{ 0.04650315269827843, -0.23522309958934784, 0.04105518385767937, 0.00897163525223732, 0.04559977725148201, -0.08076506853103638, 0.05898481607437134, -0.21794280409812927, 0.0386359840631485, 0.06014695391058922 },
			{ 0.10789623856544495, -0.11169783025979996, 0.02853424660861492, -0.1411830335855484, -0.08494609594345093, -0.13749127089977264, 0.04770826920866966, -0.2232135683298111, -0.05661396309733391, 0.03706679120659828 },
			{ 0.12102532386779785, -0.13077397644519806, -0.02859811671078205, -0.17169664800167084, 0.09229189157485962, -0.2131984978914261, 0.19026871025562286, -0.024700790643692017, 0.10410089790821075, -0.17491963505744934 },
			{ 0.06983789801597595, 0.02571176365017891, -0.12047196924686432, -0.062227457761764526, 0.04296319931745529, -0.16640065610408783, 0.19128258526325226, 0.08447815477848053, -0.00923038087785244, -0.08293474465608597 },
			{ -0.19473762810230255, 0.1601739525794983, -0.14278724789619446, 0.01651035062968731, 0.1545349359512329, -0.029729660600423813, 0.0787680521607399, 0.01839577406644821, 0.02660774439573288, 0.06906116753816605 },
			{ -0.18158051371574402, 0.025933722034096718, -0.1303328275680542, 0.049277834594249725, 0.06864427030086517, 0.014474376104772091, 0.1035444438457489, 0.022462645545601845, 0.023735055699944496, 0.07055109739303589 },
			{ -0.19802787899971008, -0.13324373960494995, -0.2506069540977478, 0.044349297881126404, 0.007224803324788809, 0.03397613763809204, 0.003375794505700469, 0.01871461234986782, 0.199561208486557, 0.12728555500507355 },
			{ -0.3057084083557129, -0.30266034603118896, -0.08594314754009247, 0.018983904272317886, 0.10635780543088913, 0.047819968312978745, -0.09831137955188751, -0.024775218218564987, 0.24184787273406982, -0.11928428709506989 },
			{ -0.10869405418634415, -0.069246806204319, 0.017130551859736443, -0.004666724242269993, 0.025010142475366592, 0.008857415989041328, -0.18667352199554443, -0.26210305094718933, 0.31593257188796997, -0.12543000280857086 },
			{ -0.05254657194018364, 0.19762037694454193, 0.23813104629516602, -0.22768202424049377, -0.07621384412050247, 0.001696228515356779, 0.05291907861828804, -0.16421975195407867, 0.00612337002530694, -0.013845107518136501 },
			{ 0.08836287260055542, 0.03534385934472084, 0.20759621262550354, -0.09401093423366547, -0.011453397572040558, -0.07112200558185577, 0.04866805300116539, -0.14911773800849915, -0.23072361946105957, -0.3812643587589264 },
			{ -0.16620203852653503, -0.032266728579998016, 0.09850557893514633, 0.09798901528120041, -0.09747130423784256, -0.05332639440894127, 0.016974449157714844, -0.23705913126468658, -0.038517065346241, -0.036469414830207825 },
			{ 0.05367596819996834, 0.11485499143600464, -0.005982935894280672, 0.02590436488389969, -0.04085398465394974, -0.08604667335748672, 0.033791519701480865, -0.16218985617160797, 0.05844314768910408, -0.18904931843280792 },
			{ 0.1006423681974411, -0.11545500159263611, -0.07127387821674347, 0.09293870627880096, -0.08458591997623444, 0.0584566704928875, -0.09223271161317825, -0.13756155967712402, 0.05277011916041374, 0.01152800302952528 },
			{ 0.04670606926083565, -0.18765658140182495, -0.015194161795079708, 0.08089916408061981, -0.09987585246562958, 0.0065531074069440365, -0.05278034880757332, -0.11774594336748123, 0.07402992248535156, -0.041887231171131134 },
			{ 0.09097057580947876, -0.013502887450158596, 0.04935970902442932, 0.05488893389701843, -0.032571081072092056, -0.019918672740459442, 0.02236775867640972, -0.09398523718118668, 0.035953667014837265, -0.04565470665693283 },
			{ 0.17507502436637878, -0.11198632419109344, 0.021135183051228523, 0.0051955245435237885, -0.09844842553138733, -0.05969447270035744, 0.13973358273506165, -0.0020058804657310247, -0.031292624771595, -0.07148785144090652 },
			{ 0.11848727613687515, 0.060035623610019684, -0.039418190717697144, -0.06991610676050186, -0.06713323295116425, -0.17252449691295624, 0.12270524352788925, 0.04013606160879135, -0.0007648109458386898, -0.07457959651947021 },
			{ -0.20280131697654724, -0.016738098114728928, -0.1491631716489792, -0.0637533888220787, 0.07984405010938644, -0.2051393985748291, 0.017462776973843575, 0.14930449426174164, -0.04575972259044647, 0.034800734370946884 },
			{ -0.41467851400375366, 0.015128321014344692, 0.010395467281341553, -0.10159537196159363, 0.011345763690769672, -0.13144518435001373, -0.10438739508390427, 0.2064499706029892, 0.020190216600894928, -0.033772557973861694 },
			{ -0.22078987956047058, 0.04935059696435928, 0.1354987919330597, -0.04244562238454819, 0.16665874421596527, -0.07437027990818024, -0.06259160488843918, 0.09806936234235764, -0.11417568475008011, -0.01062821876257658 },
			{ -0.25645017623901367, 0.08184242993593216, 0.086787648499012, -0.15276870131492615, 0.20817700028419495, -0.08287490159273148, -0.10748905688524246, -0.0036732989829033613, -0.024938886985182762, 0.03904777765274048 },
			{ -0.2908206284046173, 0.183009535074234, 0.21432888507843018, -0.16378265619277954, 0.04381527751684189, -0.03724648430943489, -0.12810027599334717, -0.20001931488513947, -0.09055949002504349, 0.04567331820726395 },
			{ -0.21480293571949005, 0.2599369287490845, 0.171583354473114, -0.287539005279541, 0.003907334990799427, -0.08467172831296921, -0.03795342147350311, -0.08024867624044418, -0.04875795543193817, -0.09607090055942535 },
			{ -0.17026250064373016, 0.1922045797109604, 0.14859658479690552, -0.1460338532924652, -0.06574936956167221, -0.11411332339048386, 0.004953162278980017, -0.10500725358724594, -0.012541016563773155, -0.14188778400421143 },
			{ -0.11556513607501984, -0.10657273977994919, 0.137664794921875, -0.1407158523797989, -0.06772531569004059, 0.008791089989244938, -0.1426784247159958, -0.1300586462020874, 0.05233515426516533, 0.03828044235706329 },
			{ 0.1327238529920578, 0.03991350531578064, 0.0005476956139318645, 0.11736584454774857, -0.17352627217769623, -0.05489335581660271, -0.08685646951198578, -0.06034782528877258, -0.06834051758050919, -0.024106688797473907 },
			{ 0.05186869576573372, -0.10670965909957886, -0.06966575235128403, 0.0989835187792778, -0.08686167001724243, 0.008931983262300491, -0.16368600726127625, -0.10485656559467316, 0.055633921176195145, 0.05401352420449257 },
			{ 0.09625215828418732, 0.012568910606205463, -0.012065701186656952, 0.15890899300575256, -0.04905089735984802, -0.018878601491451263, 0.05824259668588638, -0.1408202350139618, 0.07735142856836319, -0.00017706630751490593 },
			{ -0.007051337510347366, 0.008999967016279697, -0.010536634363234043, 0.10514329373836517, -0.07683941721916199, 0.019244691357016563, 0.08866007626056671, -0.028472045436501503, -0.016787290573120117, -0.024883795529603958 },
			{ -0.01389339193701744, 0.07783418893814087, -0.000423410558141768, 0.03293303772807121, -0.12084445357322693, 0.03175926208496094, 0.011056341230869293, -0.03471831604838371, -0.03576989844441414, -0.09000334143638611 },
			{ 0.0764821320772171, 0.048281703144311905, -0.08105003833770752, -0.15276865661144257, -0.004044242203235626, -0.09640498459339142, 0.1259983479976654, 0.040157120674848557, 0.01993168517947197, -0.04749663919210434 },
			{ 0.021393094211816788, 0.02065928466618061, 0.02610727772116661, -0.1296626329421997, 0.11418183892965317, -0.07835099846124649, 0.03418451547622681, 0.14181092381477356, 0.011240942403674126, -0.02024584822356701 },
			{ -0.2488698810338974, 0.1006660982966423, -0.060042429715394974, -0.24175764620304108, 0.0745639055967331, -0.11228983104228973, -0.055940814316272736, 0.152380108833313, 0.14336085319519043, 0.05905068293213844 },
			{ -0.3022139072418213, 0.05496746301651001, 0.17506897449493408, -0.09247415512800217, 0.12762105464935303, -0.10544281452894211, 0.05344817042350769, 0.017740577459335327, 0.11733034253120422, -0.036805056035518646 },
			{ -0.33368897438049316, 0.2127319872379303, 0.18075987696647644, -0.22964738309383392, 0.18685530126094818, -0.015100662596523762, -0.009124131873250008, -0.13163772225379944, -0.1278434544801712, -0.07246730476617813 },
			{ -0.1702442467212677, 0.09973753243684769, 0.2575010657310486, -0.3104301393032074, 0.170588880777359, -0.021972350776195526, -0.11926186084747314, -0.13124294579029083, -0.1421024650335312, 0.015767410397529602 },
			{ -0.2687574028968811, 0.11508453637361526, 0.20713230967521667, -0.23010413348674774, -0.09658235311508179, 0.01948530226945877, -0.2276672124862671, -0.33342447876930237, -0.18708281219005585, 0.04591231048107147 },
			{ -0.2563685476779938, 0.17396505177021027, -0.08361174911260605, -0.18749257922172546, -0.1400432586669922, -0.07378160208463669, -0.006953909993171692, -0.12345457822084427, -0.1332663595676422, 0.14869654178619385 },
			{ -0.16577684879302979, -0.17295916378498077, 0.057178422808647156, -0.12482155859470367, 0.09074646979570389, 0.02900388464331627, -0.147809699177742, -0.15432079136371613, -0.04669191315770149, 0.13466864824295044 },
			{ 0.03434082493185997, -0.05008294805884361, 0.07223297655582428, 0.04030925780534744, -0.19167131185531616, -0.1247033104300499, -0.1756085604429245, 0.04801834002137184, -0.1690182238817215, -0.03440263494849205 },
			{ 0.13157594203948975, -0.050786908715963364, 0.06439247727394104, 0.17196698486804962, -0.1421898901462555, -0.0717712938785553, -0.17599152028560638, -0.08527103811502457, 0.08879828453063965, -0.04934487119317055 },
			{ 0.09031035006046295, 0.04883994534611702, -0.003405284136533737, 0.07724174857139587, -0.1555177867412567, -0.0343104787170887, -0.00890695583075285, -0.03734004870057106, -0.07606563717126846, 0.01840483956038952 },
			{ 0.05211148038506508, -0.009757009334862232, -0.023333003744482994, 0.05076777935028076, -0.06143685430288315, 0.004784264601767063, 0.0025037589948624372, 0.040015868842601776, -0.03818662837147713, -0.09756387770175934 },
			{ -0.005316534545272589, 0.05954214930534363, -0.05894474685192108, -0.0038511641323566437, -0.16628150641918182, -0.019149476662278175, 0.05253414809703827, 0.011501027271151543, -0.019517038017511368, -0.02228301763534546 },
			{ 0.11051534116268158, 0.06903938949108124, -0.03767615556716919, -0.09179797768592834, -0.1814587265253067, 0.04036262631416321, -0.055835701525211334, -0.040501683950424194, -0.024931542575359344, 0.06695696711540222 },
			{ 0.06309618800878525, -0.06897000968456268, -0.01044978853315115, -0.09599494189023972, -0.06870933622121811, -0.024795670062303543, -0.0953037217259407, 0.06288880854845047, 0.13725151121616364, 0.03906618431210518 },
			{ -0.06385266035795212, 0.03228231891989708, 0.030659586191177368, -0.06183382123708725, -0.1059017926454544, -0.03688208758831024, 0.00696116778999567, 0.06936899572610855, 0.01691964641213417, 0.013754290528595448 },
			{ 0.023094825446605682, 0.18195950984954834, -0.0695282369852066, -0.06957660615444183, -0.05878140777349472, -0.02177402935922146, -0.08259813487529755, 0.053879015147686005, 0.043839022517204285, 0.043617669492959976 },
			{ -0.16414199769496918, 0.1303572952747345, 0.18897758424282074, -0.03348734974861145, -0.09426754713058472, -0.013641102239489555, -0.03304349631071091, -0.1239444687962532, -0.02226952277123928, 0.12454551458358765 },
			{ -0.06793784350156784, -0.11128009110689163, 0.11914169788360596, -0.0031763745937496424, 0.13693073391914368, 0.01782487891614437, -0.07428307086229324, -0.175619974732399, 0.08181535452604294, -0.016031457111239433 },
			{ -0.045290812849998474, -0.1965380162000656, 0.14329640567302704, -0.11806131899356842, 0.04371688887476921, -0.0014423790853470564, -0.22473883628845215, -0.20573972165584564, -0.02446555532515049, 0.14416702091693878 },
			{ -0.2020125687122345, -0.04434935376048088, 0.14434781670570374, -0.1988089680671692, -0.068987637758255, 0.06025448068976402, -0.3086085915565491, -0.18395406007766724, -0.1137254536151886, 0.35422834753990173 },
			{ -0.027763206511735916, 0.042306721210479736, -0.017813650891184807, -0.06820853054523468, 0.05734625458717346, 0.1950756162405014, -0.1325182169675827, 0.10595644265413284, -0.3508196771144867, -0.04701555520296097 },
			{ -0.07431298494338989, -0.15722106397151947, -0.1936788260936737, 0.045124031603336334, -0.27099844813346863, 0.02554445154964924, -0.04390303045511246, 0.10647164285182953, 0.0436859130859375, -0.03667411208152771 },
			{ 0.1309410035610199, 0.022902095690369606, -0.0868571326136589, 0.20702657103538513, -0.06472569704055786, -0.10169079899787903, -0.2900879681110382, 0.11415477842092514, -0.01604131981730461, 0.13661670684814453 },
			{ 0.044587619602680206, 0.004057091195136309, -0.01849387027323246, 0.23435817658901215, -0.23704524338245392, -0.07421454787254333, -0.020728927105665207, 0.12671531736850739, 0.008819676004350185, 0.043965499848127365 },
			{ -0.09037880599498749, 0.0573716014623642, -0.08473167568445206, 0.14107732474803925, 0.06386634707450867, -0.09633427113294601, -0.13401049375534058, 0.05823493376374245, -0.02878618985414505, 0.06541930139064789 },
			{ -0.04991130158305168, 0.01898357644677162, -0.04789154231548309, 0.06901124864816666, -0.03339412808418274, -0.04504091665148735, 0.023407982662320137, 0.04105577990412712, 0.07957364618778229, 0.09069512784481049 },
			{ -0.19749081134796143, 0.11801251769065857, -0.03419116139411926, 0.13312721252441406, -0.004609906580299139, 0.0059018610045313835, -0.06424455344676971, 0.059455424547195435, -0.010617395862936974, 0.07453703135251999 },
			{ -0.10719840973615646, 0.0725858137011528, 0.07887660712003708, -0.08674919605255127, 0.02573815919458866, -0.09103834629058838, -0.0480421707034111, -0.04114982858300209, -0.04496327415108681, 0.0856991708278656 },
			{ -0.07207044214010239, -0.09672869741916656, 0.11378128081560135, 0.05803786963224411, -0.04457855597138405, -0.017727801576256752, 0.0028003340121358633, -0.04202592000365257, -0.06830795854330063, -0.07159839570522308 },
			{ -0.1025790125131607, -0.10772876441478729, 0.0033713411539793015, 0.022843927145004272, -0.123142309486866, 0.016848523169755936, -0.00939990859478712, 0.0860937237739563, -0.05304337665438652, 0.12400723993778229 },
			{ -0.06827465444803238, 0.02144893817603588, 0.05906882509589195, 0.12015816569328308, -0.031090781092643738, 0.01747647300362587, 0.025656873360276222, -0.11572477966547012, 0.037415869534015656, 0.119415782392025 },
			{ -0.10481252521276474, 0.06588216871023178, 0.014713187702000141, -0.07408720999956131, -0.03452127426862717, 0.06663204729557037, 0.005164691247045994, -0.1874656230211258, -0.05482025444507599, 0.11336939036846161 },
			{ -0.15935274958610535, -0.2887443006038666, 0.06284712255001068, -0.09367769211530685, 0.077009417116642, 0.016185453161597252, -0.19050002098083496, -0.24329650402069092, -0.006632066797465086, 0.17298369109630585 },
			{ -0.13700981438159943, -0.1232900395989418, -0.002243014518171549, -0.07098221033811569, -0.08342071622610092, 0.09500959515571594, -0.23951832950115204, -0.1393309384584427, -0.2615896761417389, 0.284141480922699 },
			{ -0.12591896951198578, 0.05665662884712219, 0.11552999913692474, -0.032966624945402145, 0.03536021709442139, -0.0058274054899811745, 0.016896886751055717, 0.08831854164600372, -0.29958513379096985, -0.003086957149207592 },
			{ 0.018491381779313087, -0.03852906450629234, -0.00909979734569788, -0.19929879903793335, -0.07952817529439926, 0.018094653263688087, -0.012813967652618885, -0.16419890522956848, 0.027720853686332703, 0.13375386595726013 },
			{ 0.06837478280067444, -0.013834880664944649, -0.047255925834178925, -0.11213954538106918, -0.019721457734704018, 0.05111651122570038, 0.03808722645044327, -0.16471800208091736, 0.03348293527960777, 0.1951124370098114 },
			{ -0.04198942705988884, -0.11546821892261505, -0.1603735089302063, -0.002441402990370989, -0.09935767948627472, -0.0029758864548057318, 0.1530255675315857, -0.11362379789352417, 0.10312558710575104, 0.15161681175231934 },
			{ -0.222293883562088, -0.13386361300945282, -0.10942939668893814, 0.010878629982471466, -0.24065203964710236, -0.2890609800815582, 0.14332063496112823, -0.2639346420764923, -0.018429646268486977, 0.1528289020061493 },
			{ -0.03820420056581497, 0.19114141166210175, 0.0704801008105278, 0.1463267058134079, -0.08916103839874268, -0.18048563599586487, 0.15406465530395508, -0.2643665075302124, -0.02694888785481453, -0.17031563818454742 },
			{ -0.12141452729701996, 0.009873943403363228, 0.0898248702287674, 0.10283396393060684, -0.22426694631576538, 0.02114497870206833, 0.191409632563591, -0.527736246585846, -0.037497974932193756, -0.3075706958770752 },
			{ -0.014660780318081379, -0.03806448355317116, 0.03986979275941849, 0.17944477498531342, -0.4976712465286255, -0.09365545958280563, 0.006283213850110769, -0.45656758546829224, 0.07732704281806946, -0.11059189587831497 },
			{ -0.1249636858701706, -0.1583872139453888, 0.048206012696027756, 0.08038225024938583, -0.23683756589889526, -0.048274584114551544, 0.1695782095193863, -0.13836251199245453, 0.12906181812286377, -0.0960075780749321 },
			{ -0.050441674888134, -0.039512623101472855, 0.04845038056373596, 0.044408682733774185, -0.07018008083105087, -0.05776745080947876, -0.023072917014360428, -0.3060728907585144, 0.1412634551525116, -0.11715724319219589 },
			{ 0.019711386412382126, -0.020187634974718094, 0.0857597291469574, 0.08273448795080185, -0.24269087612628937, 0.011618534103035927, 0.023855701088905334, -0.3433643579483032, 0.09344447404146194, -0.082648366689682 },
			{ -0.09002073109149933, -0.013555575162172318, 0.0075726741924881935, -0.024291766807436943, 0.042355868965387344, 0.04124206677079201, 0.029950296506285667, -0.31427547335624695, -0.05539858713746071, -0.14735107123851776 },
			{ -0.08185946941375732, 0.1121511235833168, -0.10958031564950943, -0.013676431030035019, -0.0406637080013752, -0.024963827803730965, 0.29338642954826355, -0.06295713037252426, -0.08026520907878876, -0.2142743319272995 },
			{ -0.24413713812828064, -0.2127149999141693, 0.013416608795523643, 0.04571894183754921, 0.09783106297254562, -0.0527997761964798, 0.1857195496559143, -0.13387015461921692, -0.08655291050672531, -0.36028212308883667 },
			{ -0.09585216641426086, -0.13249950110912323, -0.10657647997140884, -0.2873035967350006, 0.07506214082241058, 0.07354751229286194, -0.06603186577558517, -0.25057539343833923, 0.026192691177129745, -0.009491142816841602 },
			{ -0.030306238681077957, -0.09976068139076233, -0.12041265517473221, -0.0004539013607427478, -0.07687247544527054, 0.192399799823761, -0.020703690126538277, -0.12888431549072266, 0.03993365913629532, 0.19415833055973053 },
			{ -0.05183487758040428, -0.2145043909549713, -0.09050485491752625, -0.09114713221788406, -0.07846412062644958, 0.12673938274383545, 0.0763375461101532, -0.13088063895702362, -0.0007279293495230377, 0.11717159301042557 },
			{ 0.0007993180770426989, -0.018917903304100037, -0.08502844721078873, 0.07097269594669342, 0.021823424845933914, 0.07344217598438263, 0.06379855424165726, -0.06332007795572281, -0.26970770955085754, -0.05051350221037865 },
			{ -0.1468818634748459, 0.22513535618782043, -0.29553836584091187, 0.04071298614144325, -0.06392291188240051, -0.010126148350536823, 0.18075497448444366, 0.09701406210660934, -0.26927387714385986, -0.4888456463813782 },
			{ -0.21246221661567688, 0.15062662959098816, 0.020314984023571014, -0.03211114928126335, 0.12005314230918884, -0.1002904549241066, 0.028538133949041367, 0.1170850321650505, -0.25028371810913086, -0.49801012873649597 },
			{ -0.05967402458190918, 0.1564841866493225, 0.035349223762750626, 0.07411174476146698, 0.018744153901934624, 0.01091744378209114, 0.2358301877975464, -0.1108892560005188, -0.3034214675426483, -0.22400358319282532 },
			{ -0.037541888654232025, -0.023992089554667473, 0.13434892892837524, 0.026646409183740616, 0.10188718885183334, -0.13349810242652893, 0.035670071840286255, -0.07917962223291397, -0.08150141686201096, -0.115287184715271 },
			{ 0.13849079608917236, -0.06126651540398598, -0.08445992320775986, 0.009878293611109257, -0.11750073730945587, -0.19717282056808472, -0.03843981400132179, -0.012601058930158615, 0.18078520894050598, 0.04849660024046898 },
			{ 0.09019018709659576, -0.04465768486261368, -0.06695054471492767, 0.007342098746448755, -0.15897119045257568, -0.06028640642762184, 0.019769970327615738, -0.06979312002658844, 0.021732116118073463, 0.015806837007403374 },
			{ 0.002322765765711665, 0.05855171009898186, 0.02078329585492611, 0.038256723433732986, -0.11358179152011871, 0.07267109304666519, -0.024560129269957542, -0.15784630179405212, 0.06340382993221283, 0.0014601831790059805 },
			{ -0.046487919986248016, 0.04104908928275108, -0.1132749691605568, 0.00904410146176815, -0.16365128755569458, 0.05964677408337593, 0.017953692004084587, -0.1681729108095169, 0.03864012286067009, 0.08659473061561584 },
			{ -0.07273939251899719, 0.03178277611732483, 0.031971901655197144, 0.03746461123228073, -0.07513098418712616, -0.0749470517039299, -0.009829184971749783, -0.15315015614032745, 0.042127761989831924, -0.07687769085168839 },
			{ 0.030156949535012245, -0.0991138145327568, 0.12160986661911011, -0.028073277324438095, 0.030780436471104622, 0.0025563689414411783, -0.009509327821433544, -0.17761796712875366, 0.026343801990151405, -0.146214559674263 },
			{ -0.17860351502895355, -0.0544419102370739, -0.08505412191152573, -0.05651533231139183, 0.041672635823488235, 0.18713150918483734, 0.017054885625839233, -0.5331308245658875, -0.06729782372713089, -0.15644016861915588 },
			{ -0.06233622878789902, 0.12352725863456726, -0.17642641067504883, 0.037326715886592865, -0.07568410784006119, -0.06431606411933899, 0.10203760117292404, 0.06399869173765182, -0.06463028490543365, 0.08784501254558563 },
			{ 0.10315251350402832, 0.042984675616025925, 0.044294845312833786, -0.06655124574899673, -0.10550378262996674, 0.021908024325966835, -0.2201923280954361, 0.23557136952877045, -0.20453326404094696, -0.12180772423744202 },
			{ -0.2051790952682495, 0.062159158289432526, -0.23131123185157776, -0.02819875068962574, 0.09818577021360397, -0.05210668593645096, 0.15267518162727356, 0.14638498425483704, -0.15901125967502594, -0.5087285041809082 },
			{ -0.21095360815525055, 0.16169293224811554, -0.18145135045051575, -0.14166496694087982, 0.17448028922080994, -0.09996327012777328, 0.11316928267478943, 0.4142438471317291, -0.41591644287109375, -0.8386790156364441 },
			{ -0.21270230412483215, 0.21138325333595276, -0.3276207447052002, -0.0725814551115036, 0.2663736343383789, -0.3059725761413574, 0.12387862056493759, 0.4369805157184601, 0.06758637726306915, -0.8177016973495483 },
			{ -0.21161876618862152, 0.24993310868740082, -0.16722428798675537, -0.012126467190682888, 0.2229311615228653, -0.02896742895245552, 0.2687990367412567, 0.14821679890155792, -0.025095274671912193, -0.6380867958068848 },
			{ -0.13501128554344177, 0.11885350197553635, -0.04244005307555199, -0.07787144929170609, 0.2772524356842041, -0.1577948033809662, 0.20821768045425415, -0.024356303736567497, -0.1618434637784958, -0.25945374369621277 },
			{ 0.040274858474731445, 0.17464524507522583, -0.03449609875679016, -0.025052566081285477, 0.14735430479049683, -0.20283426344394684, 0.046891968697309494, -0.052574366331100464, -0.06132578104734421, -0.022959455847740173 },
			{ 0.03442813828587532, 0.10037427395582199, 0.023411555215716362, -0.03236242011189461, 0.15353891253471375, -0.20327383279800415, 0.022050663828849792, -0.10667894035577774, -0.08786790072917938, 0.08445776998996735 },
			{ 0.07386641204357147, 0.07511279731988907, -0.11952221393585205, 0.07111676782369614, 0.039968881756067276, -0.22878491878509521, -0.12561944127082825, -0.04303431510925293, -0.0017321602208539844, 0.03782617300748825 },
			{ 0.02359301596879959, 0.016956722363829613, -0.045848600566387177, 0.043743617832660675, 0.04002624750137329, -0.12685170769691467, -0.09801545739173889, -0.05100042372941971, 0.08030539751052856, -0.00637297797948122 },
			{ -0.06927085667848587, 0.0576406866312027, -0.07232732325792313, -0.02015542984008789, 0.004559494089335203, -0.2234978824853897, -0.08711270242929459, 0.014988628216087818, 0.04428408667445183, 0.024473190307617188 },
			{ 0.0709901824593544, -0.07238234579563141, 0.10343886911869049, -0.03217591717839241, -0.016659123823046684, -0.039084143936634064, -0.022481650114059448, 0.021166251972317696, 0.09299225360155106, -0.1323825716972351 },
			{ -0.010709553025662899, -0.11880632489919662, -0.09302295744419098, -0.08174708485603333, 0.020210323855280876, 0.1364327073097229, -0.059980809688568115, -0.09175974130630493, 0.08325626701116562, -0.10296737402677536 },
			{ -0.10459571331739426, -0.08917953819036484, -0.03583036735653877, 0.128082275390625, 0.017016753554344177, -0.05001777037978172, -0.010019619949162006, -0.10377024859189987, -0.00999928917735815, -0.007228272967040539 },
			{ -0.08466346561908722, -0.13557398319244385, 0.01508808322250843, 0.009432458318769932, 0.021887436509132385, -0.018174167722463608, -0.10582707077264786, 0.06750071048736572, -0.0255307424813509, -0.15691782534122467 },
			{ -0.1722903698682785, 0.1100388839840889, -0.06457635760307312, 0.0681949257850647, 0.06136827915906906, -0.05071287974715233, 0.0885375365614891, 0.1609627604484558, -0.30955061316490173, -0.3760252296924591 },
			{ -0.25060999393463135, 0.032171204686164856, -0.1846269816160202, -0.06075557321310043, 0.15896232426166534, 0.002180309034883976, 0.20570838451385498, 0.3012262284755707, -0.032433800399303436, -0.6230329871177673 },
			{ -0.1435852348804474, -0.19901789724826813, -0.37387242913246155, -0.19471463561058044, 0.264480322599411, 0.1721721887588501, 0.21969246864318848, 0.20161834359169006, -0.0066484808921813965, -0.358270525932312 },
			{ -0.09605350345373154, -0.07696077972650528, -0.18116925656795502, -0.5818433165550232, 0.4790875017642975, 0.24678538739681244, 0.24615366756916046, 0.09534821659326553, 0.04262346029281616, -0.3117072284221649 },
			{ -0.004764338955283165, 0.1670406311750412, -0.13659054040908813, -0.42266687750816345, 0.3160039782524109, 0.17496880888938904, 0.2554091215133667, -0.01996157132089138, 0.01575266756117344, -0.3347269594669342 },
			{ -0.11285248398780823, 0.35343092679977417, -0.2231597602367401, -0.11539018154144287, 0.23185274004936218, -0.04317748174071312, 0.03095754235982895, -0.041097432374954224, -0.20557701587677002, -0.24679525196552277 },
			{ -0.13684630393981934, 0.21889936923980713, 0.022677306085824966, -0.03034379333257675, 0.1164378970861435, -0.16561786830425262, -0.08810368925333023, 0.014382300898432732, -0.14426885545253754, 0.042148858308792114 },
			{ -0.06353127211332321, 0.11363497376441956, 0.10516869276762009, 0.07923440635204315, 0.05753770470619202, -0.0229867622256279, -0.12732529640197754, 0.09030988812446594, -0.014932332560420036, 0.02944175899028778 },
			{ 0.04356491193175316, 0.02290450409054756, 0.019286539405584335, 0.08284056186676025, 0.06262043863534927, -0.14122331142425537, -0.14847181737422943, -0.0028136873152107, 0.09979397803544998, -0.004379207734018564 },
			{ -0.018283238634467125, -0.060235023498535156, 0.02586352452635765, 0.09505288302898407, -0.030666347593069077, -0.14884155988693237, -0.018773233518004417, 0.05542454496026039, 0.0701194703578949, 0.06501008570194244 },
			{ -0.006862236652523279, 0.03710869327187538, -0.0008080887491814792, 0.0785122811794281, -0.06879042088985443, -0.15191417932510376, -0.03898074850440025, -0.02267635427415371, 0.11086197197437286, -0.10192512720823288 },
